{"learner":{"attributes":{"scikit_learn":"{\"_estimator_type\": \"classifier\"}"},"feature_names":[],"feature_types":[],"gradient_booster":{"model":{"cats":{"enc":[],"feature_segments":[],"sorted_idx":[]},"gbtree_model_param":{"num_parallel_tree":"1","num_trees":"200"},"iteration_indptr":[0,1,2,3,4,5,6,7,8,9,10,11,12,13,14,15,16,17,18,19,20,21,22,23,24,25,26,27,28,29,30,31,32,33,34,35,36,37,38,39,40,41,42,43,44,45,46,47,48,49,50,51,52,53,54,55,56,57,58,59,60,61,62,63,64,65,66,67,68,69,70,71,72,73,74,75,76,77,78,79,80,81,82,83,84,85,86,87,88,89,90,91,92,93,94,95,96,97,98,99,100,101,102,103,104,105,106,107,108,109,110,111,112,113,114,115,116,117,118,119,120,121,122,123,124,125,126,127,128,129,130,131,132,133,134,135,136,137,138,139,140,141,142,143,144,145,146,147,148,149,150,151,152,153,154,155,156,157,158,159,160,161,162,163,164,165,166,167,168,169,170,171,172,173,174,175,176,177,178,179,180,181,182,183,184,185,186,187,188,189,190,191,192,193,194,195,196,197,198,199,200],"tree_info":[0,0,0,0,0,0,0,0,0,0,0,0,0,0,0,0,0,0,0,0,0,0,0,0,0,0,0,0,0,0,0,0,0,0,0,0,0,0,0,0,0,0,0,0,0,0,0,0,0,0,0,0,0,0,0,0,0,0,0,0,0,0,0,0,0,0,0,0,0,0,0,0,0,0,0,0,0,0,0,0,0,0,0,0,0,0,0,0,0,0,0,0,0,0,0,0,0,0,0,0,0,0,0,0,0,0,0,0,0,0,0,0,0,0,0,0,0,0,0,0,0,0,0,0,0,0,0,0,0,0,0,0,0,0,0,0,0,0,0,0,0,0,0,0,0,0,0,0,0,0,0,0,0,0,0,0,0,0,0,0,0,0,0,0,0,0,0,0,0,0,0,0,0,0,0,0,0,0,0,0,0,0,0,0,0,0,0,0,0,0,0,0,0,0,0,0,0,0,0,0],"trees":[{"base_weights":[-0E0,3.4197396E-1,-1.5689559E0,6.2293035E-1,-6.476086E-1,-1.6666666E0,-2.3622048E-1,8.003742E-1,-2.7332705E-1,-1.4158636E0,1.5443038E0,-1.0607288E0,-1.7670176E0,2.9166666E-1,-4.9714288E-1,6.978945E-1,1.1836007E0,-8.704663E-1,1.3037542E0,-1.6118685E0,9.433962E-1,7.107438E-1,1.8095238E0,2.2222222E-1,-1.1964285E0,-1.5935199E0,-1.9146667E0,7.936508E-1,-5.945946E-1,7.861369E-1,2.346041E-1,1.1949911E0,-3E-1,1.8181819E-1,-9.1251683E-1,1.3857678E0,4E-1,1.7021276E-1,-1.7510804E0,1.661017E0,3.9215688E-2,1.7073171E0,-1.255814E0,-6.666667E-2,1.8409091E0,8.5714287E-1,-3.6E-1,-1.2511415E0,2.0000002E-1,-2.5E-1,-1.6161919E0,-1.919571E0,-1.5E-1,-6.666667E-1,1.2653061E0,-4.1052634E-1,1.8181819E-1,-5.660377E-1,8.057143E-1,1.0981697E-1,1.1058824E0,1.2260466E0,3.8297874E-1,-6.666667E-1,9.4736844E-1,5.7142857E-2,-9.550562E-1,4E-1,1.442231E0,1.1578947E0,-6.666667E-1,1.2E0,-4.1269842E-1,-1.8228521E0,1E0,-0E0,5.345455E-1,-1.2E0,1.0666667E0,1.7837838E0,2.0000002E-1,1.5E-1,-1.4871795E0,1.3658537E0,5.868614E-1,4.2857146E-1,-5.454546E-2,-1.3142858E0,1.5384616E-1,3.3333337E-1,-3.818182E-1,-8.4210527E-1,-1.6524487E0,-5.7735854E-1,-1.5E-1,-3.4285718E-1,1.5E-1,1.5238096E0,-5.454546E-2,3.6E-1,-5E-1,4.0000003E-2,-3.7777779E-1,1.5529414E-1,2.5611225E-1,-3.4285718E-1,5.0953206E-2,5.1219517E-1,1.5E-1,3.2038838E-1,4.281996E-1,3.2903227E-1,-2.4000001E-1,2.0000002E-1,-4.1538465E-1,4.4000003E-1,-1.5E-1,-1.6800001E-1,3.4285718E-1,-1.718919E-1,-3.242938E-1,4.1538465E-1,-2.7272728E-1,4.4390246E-1,-6.666667E-2,-0E0,4.4000003E-1,-3.818182E-1,1.5E-1,7.5E-2,4.9565217E-1,-2.9361704E-1,3E-1,-5.5632395E-1,-1.7647061E-1,4.5000002E-1,-1.0000001E-1,-5.454546E-2,-4.666667E-1,-0E0,4.3636367E-1,5.4857147E-1,1.5E-1,-4.9714288E-1,-0E0,1.8947369E-1,5.5E-1,-4.2765957E-1,-9.23077E-2,3E-1,-2.0000002E-1,-4.5000002E-1,6.666667E-2,-5.0031954E-1,-5.454546E-2,-0E0,5.052632E-1,1.20000005E-1,-3.6E-1],"categories":[],"categories_nodes":[],"categories_segments":[],"categories_sizes":[],"default_left":[0,0,0,0,0,0,0,0,0,0,0,0,0,0,0,0,0,0,0,0,0,0,0,0,0,0,0,0,0,0,0,0,0,0,0,0,0,0,0,0,0,0,0,0,0,0,0,0,0,0,0,0,0,0,0,0,0,0,0,0,0,0,0,0,0,0,0,0,0,0,0,0,0,0,0,0,0,0,0,0,0,0,0,0,0,0,0,0,0,0,0,0,0,0,0,0,0,0,0,0,0,0,0,0,0,0,0,0,0,0,0,0,0,0,0,0,0,0,0,0,0,0,0,0,0,0,0,0,0,0,0,0,0,0,0,0,0,0,0,0,0,0,0,0,0,0,0,0,0,0,0,0,0,0,0,0,0,0,0],"id":0,"left_children":[1,3,5,7,9,11,13,15,17,19,21,23,25,27,-1,29,31,33,35,37,39,41,43,45,47,49,51,53,55,57,59,61,-1,63,65,67,69,71,73,75,77,79,81,-1,83,85,-1,87,-1,89,91,93,-1,95,97,-1,99,101,103,105,107,109,111,113,115,117,119,121,123,125,127,129,131,133,135,-1,-1,137,139,141,-1,-1,143,145,-1,-1,-1,147,149,-1,-1,151,153,-1,-1,-1,-1,155,-1,-1,157,-1,-1,-1,-1,-1,-1,-1,-1,-1,-1,-1,-1,-1,-1,-1,-1,-1,-1,-1,-1,-1,-1,-1,-1,-1,-1,-1,-1,-1,-1,-1,-1,-1,-1,-1,-1,-1,-1,-1,-1,-1,-1,-1,-1,-1,-1,-1,-1,-1,-1,-1,-1,-1,-1,-1,-1,-1,-1],"loss_changes":[1.3424282E3,5.7154553E2,5.7913452E1,2.5475488E2,7.679618E2,2.3481934E1,2.4298584E1,5.1652466E1,2.5093068E2,1.5747394E2,2.4911499E1,1.1016319E1,6.074951E0,1.1149239E1,0E0,4.3017456E1,8.17157E0,8.705978E0,4.8749847E0,7.763916E1,1.7129618E1,6.1428596E1,6.100281E0,7.1238093E0,6.5424805E0,4.7666016E0,3.4106445E-1,1.169161E1,5.806285E0,2.394336E1,1.841605E1,6.5787354E0,0E0,5.9904304E0,7.716522E0,3.1383972E0,6.835088E0,1.4601689E1,5.893518E1,2.959629E0,1.7513725E1,4.4210052E-1,5.110613E0,0E0,2.1480103E0,3.3766232E0,0E0,5.0594406E0,0E0,6.982323E0,3.2884521E0,3.501587E-1,0E0,3.0714288E0,4.859617E0,0E0,4.418182E0,6.591754E0,1.1655212E1,1.1492056E1,6.8898125E0,7.0273743E0,1.0799176E1,5.230769E0,4.3035088E0,6.502857E0,7.944748E0,7.703496E0,4.239609E0,1.6982455E0,3.287879E0,3.3456516E0,1.357278E1,9.907227E0,5.833333E0,0E0,0E0,1.9797983E0,3.1030302E0,1.4942169E-1,0E0,0E0,2.46447E0,5.8789024E0,0E0,0E0,0E0,5.4403076E0,2.9230769E0,0E0,0E0,6.98538E0,3.25354E0,0E0,0E0,0E0,0E0,2.5664158E0,0E0,0E0,3E0,0E0,0E0,0E0,0E0,0E0,0E0,0E0,0E0,0E0,0E0,0E0,0E0,0E0,0E0,0E0,0E0,0E0,0E0,0E0,0E0,0E0,0E0,0E0,0E0,0E0,0E0,0E0,0E0,0E0,0E0,0E0,0E0,0E0,0E0,0E0,0E0,0E0,0E0,0E0,0E0,0E0,0E0,0E0,0E0,0E0,0E0,0E0,0E0,0E0,0E0,0E0,0E0,0E0,0E0,0E0,0E0,0E0,0E0],"parents":[2147483647,0,0,1,1,2,2,3,3,4,4,5,5,6,6,7,7,8,8,9,9,10,10,11,11,12,12,13,13,15,15,16,16,17,17,18,18,19,19,20,20,21,21,22,22,23,23,24,24,25,25,26,26,27,27,28,28,29,29,30,30,31,31,33,33,34,34,35,35,36,36,37,37,38,38,39,39,40,40,41,41,42,42,44,44,45,45,47,47,49,49,50,50,51,51,53,53,54,54,56,56,57,57,58,58,59,59,60,60,61,61,62,62,63,63,64,64,65,65,66,66,67,67,68,68,69,69,70,70,71,71,72,72,73,73,74,74,77,77,78,78,79,79,82,82,83,83,87,87,88,88,91,91,92,92,97,97,100,100],"right_children":[2,4,6,8,10,12,14,16,18,20,22,24,26,28,-1,30,32,34,36,38,40,42,44,46,48,50,52,54,56,58,60,62,-1,64,66,68,70,72,74,76,78,80,82,-1,84,86,-1,88,-1,90,92,94,-1,96,98,-1,100,102,104,106,108,110,112,114,116,118,120,122,124,126,128,130,132,134,136,-1,-1,138,140,142,-1,-1,144,146,-1,-1,-1,148,150,-1,-1,152,154,-1,-1,-1,-1,156,-1,-1,158,-1,-1,-1,-1,-1,-1,-1,-1,-1,-1,-1,-1,-1,-1,-1,-1,-1,-1,-1,-1,-1,-1,-1,-1,-1,-1,-1,-1,-1,-1,-1,-1,-1,-1,-1,-1,-1,-1,-1,-1,-1,-1,-1,-1,-1,-1,-1,-1,-1,-1,-1,-1,-1,-1,-1,-1,-1,-1],"split_conditions":[1.1224617E1,1E0,1.0858749E1,9.415075E0,6.9688506E0,1.1838748E1,1.3599128E1,7.6975756E0,9.230731E0,1.6323484E0,9.278173E-2,3.9512436E0,1.3599128E1,5.1952247E-3,-4.9714288E-1,7.5827384E0,8.425693E-2,2.944439E0,4.3333657E-2,4.248495E0,1.3834507E1,1.7917595E0,5.9738097E0,2.5060948E-2,2.201005E-2,-3.78308E-2,7.309265E-2,-2.1876918E-2,1.0753808E-2,6.931472E-1,5.238087E-2,6.7599595E-2,-3E-1,-9.160737E-3,-5.505217E-2,-4.8486423E-2,6.9690626E-3,2.5649493E0,5.3201604E0,1.3862944E0,4.3086424E0,1.3862944E0,4.9416423E0,-6.666667E-2,7.385231E0,1.2954367E-2,-3.6E-1,5.261998E-2,2.0000002E-1,-1.42594725E-2,2.4849067E0,7.669857E-2,-1.5E-1,2.018567E-2,5.0439738E-2,-4.1052634E-1,-1.3163763E-2,1.0986123E0,2.8332133E0,-3.3520445E-2,-4.5913025E-3,2.2376452E-2,7.8735976E0,-1.4853238E-3,-5.275862E-4,-1.6263282E-2,-3.345193E-2,2.0839868E-2,1.9936204E-2,-2.1638822E-2,1.8341828E-2,2.944439E0,5.866468E0,6.9650803E0,7.1466397E-3,-0E0,5.345455E-1,3.579563E0,-1.31745525E-2,6.4831076E0,2.0000002E-1,1.5E-1,8.511578E0,7.4849305E0,5.868614E-1,4.2857146E-1,-5.454546E-2,2.5603069E-2,6.080003E-3,3.3333337E-1,-3.818182E-1,-3.170449E-3,6.168937E-2,-5.7735854E-1,-1.5E-1,-3.4285718E-1,1.5E-1,-1.851178E-2,-5.454546E-2,3.6E-1,-2.075022E-2,4.0000003E-2,-3.7777779E-1,1.5529414E-1,2.5611225E-1,-3.4285718E-1,5.0953206E-2,5.1219517E-1,1.5E-1,3.2038838E-1,4.281996E-1,3.2903227E-1,-2.4000001E-1,2.0000002E-1,-4.1538465E-1,4.4000003E-1,-1.5E-1,-1.6800001E-1,3.4285718E-1,-1.718919E-1,-3.242938E-1,4.1538465E-1,-2.7272728E-1,4.4390246E-1,-6.666667E-2,-0E0,4.4000003E-1,-3.818182E-1,1.5E-1,7.5E-2,4.9565217E-1,-2.9361704E-1,3E-1,-5.5632395E-1,-1.7647061E-1,4.5000002E-1,-1.0000001E-1,-5.454546E-2,-4.666667E-1,-0E0,4.3636367E-1,5.4857147E-1,1.5E-1,-4.9714288E-1,-0E0,1.8947369E-1,5.5E-1,-4.2765957E-1,-9.23077E-2,3E-1,-2.0000002E-1,-4.5000002E-1,6.666667E-2,-5.0031954E-1,-5.454546E-2,-0E0,5.052632E-1,1.20000005E-1,-3.6E-1],"split_indices":[64,73,65,64,65,64,64,65,65,71,70,65,64,49,0,64,21,65,56,64,72,66,64,0,63,4,20,30,16,66,57,57,0,10,35,25,16,64,69,66,69,66,64,0,65,41,0,8,0,37,65,29,0,9,24,0,23,68,66,32,23,33,64,32,37,37,22,21,22,15,0,65,65,64,16,0,0,69,27,64,0,0,65,64,0,0,0,48,14,0,0,45,15,0,0,0,0,11,0,0,39,0,0,0,0,0,0,0,0,0,0,0,0,0,0,0,0,0,0,0,0,0,0,0,0,0,0,0,0,0,0,0,0,0,0,0,0,0,0,0,0,0,0,0,0,0,0,0,0,0,0,0,0,0,0,0,0,0,0],"split_type":[0,0,0,0,0,0,0,0,0,0,0,0,0,0,0,0,0,0,0,0,0,0,0,0,0,0,0,0,0,0,0,0,0,0,0,0,0,0,0,0,0,0,0,0,0,0,0,0,0,0,0,0,0,0,0,0,0,0,0,0,0,0,0,0,0,0,0,0,0,0,0,0,0,0,0,0,0,0,0,0,0,0,0,0,0,0,0,0,0,0,0,0,0,0,0,0,0,0,0,0,0,0,0,0,0,0,0,0,0,0,0,0,0,0,0,0,0,0,0,0,0,0,0,0,0,0,0,0,0,0,0,0,0,0,0,0,0,0,0,0,0,0,0,0,0,0,0,0,0,0,0,0,0,0,0,0,0,0,0],"sum_hessian":[2.5E3,2.05325E3,4.4675E2,1.5995E3,4.5375E2,4.16E2,3.075E1,1.33525E3,2.6425E2,3.3625E2,1.175E2,6.075E1,3.5525E2,2.3E1,7.75E0,1.05575E3,2.795E2,1.92E2,7.225E1,3.1075E2,2.55E1,2.925E1,8.825E1,5.75E0,5.5E1,1.6875E2,1.865E2,1.475E1,8.25E0,8.8625E2,1.695E2,2.785E2,1E0,7.25E0,1.8475E2,6.575E1,6.5E0,2.25E1,2.8825E2,1.375E1,1.175E1,1.95E1,9.75E0,1.25E0,8.7E1,4.25E0,1.5E0,5.375E1,1.25E0,3E0,1.6575E2,1.855E2,1E0,3.5E0,1.125E1,3.75E0,4.5E0,1.225E1,8.74E2,1.4925E2,2.025E1,2.6775E2,1.075E1,3.5E0,3.75E0,7.75E0,1.77E2,4E0,6.175E1,3.75E0,2.75E0,7.75E0,1.475E1,2.8125E2,7E0,1E0,1.275E1,5.25E0,6.5E0,1.75E1,2E0,1E0,8.75E0,1.95E1,6.75E1,2.5E0,1.75E0,5.15E1,2.25E0,1.25E0,1.75E0,8.5E0,1.5725E2,1.845E2,1E0,2.5E0,1E0,9.5E0,1.75E0,1.5E0,3E0,6.5E0,5.75E0,1.265E2,7.475E2,6E0,1.4325E2,9.25E0,1.1E1,1.535E2,1.1425E2,6.75E0,4E0,1.25E0,2.25E0,2.75E0,1E0,5.25E0,2.5E0,4.525E1,1.3175E2,2.25E0,1.75E0,6.05E1,1.25E0,1E0,2.75E0,1.75E0,1E0,3E0,4.75E0,1.075E1,4E0,2.7375E2,7.5E0,5E0,2E0,1.75E0,3.5E0,2E0,4.5E0,1.65E1,1E0,7.75E0,1E0,8.5E0,1.1E1,4.6E1,5.5E0,1E0,1.25E0,5E0,3.5E0,1.555E2,1.75E0,1E0,8.5E0,1.5E0,1.5E0],"tree_param":{"num_deleted":"0","num_feature":"75","num_nodes":"159","size_leaf_vector":"1"}},{"base_weights":[-1.35857E-3,2.4875094E-1,-1.1886494E0,4.4697142E-1,-4.8510224E-1,-1.2760466E0,-3.0519864E-1,5.6412053E-1,-2.596255E-1,-1.0706328E0,1.1886847E0,-8.303243E-1,-1.3506442E0,2.9478097E-1,-1.2068915E0,4.9725288E-1,9.7472817E-1,-6.5319204E-1,9.972064E-1,-1.2236729E0,7.682523E-1,5.5100125E-1,1.3942012E0,1.6303301E-1,-9.4078296E-1,-1.2168597E0,-1.4802344E0,-1.5493813E-1,1.022119E0,-1.3913318E0,1.7326927E-1,5.4482573E-1,-8.6315185E-2,6.0603946E-1,1.1070749E0,-8.2280934E-1,-2.7190807E-1,1.1492862E0,4.1575855E-1,6.1175925E-1,-1.314028E0,-4.3465444E-1,1.2281057E0,1.2728878E0,-1.0779166E0,-5.5593953E-2,1.4206288E0,6.890947E-1,-3.0163023E-1,-4.8372334E-1,-1.1669121E0,-1.2521712E0,-4.4270498E-1,-1.1279438E-1,-1.4909297E0,9.834773E-1,-5.370746E-1,1.3942193E0,-4.571006E-2,-3.0931907E-2,-4.491454E-1,-4.659365E-1,5.5697584E-1,6.808212E-1,-3.0732632E-1,7.812021E-1,-3.1385925E-1,3.440515E-1,1.170568E0,-9.975883E-1,-1.6549294E-1,-7.4454296E-1,9.244645E-2,-7.86887E-2,1.2338127E0,-9.718535E-1,8.729911E-1,8.775442E-1,-1.8427165E-1,-1.3688841E0,8.7451184E-1,4.1015545E-1,2.2932698E-3,-8.807934E-2,1.3878748E0,-1.2075197E0,-0E0,9.644425E-1,4.4937235E-1,-7.073139E-2,3.6794907E-1,-1.1547757E0,1.3523489E-1,-1.4854575E0,-7.015335E-1,-1.267643E0,7.986235E-2,-3.49178E-1,6.7406106E-1,-1.1123727E-1,-1.4967574E0,3.731156E-1,4.6685092E-2,-1.1216387E0,8.088297E-2,4.7296718E-1,7.929725E-2,2.9611638E-2,-3.0615366E-1,1.2921795E-1,1.9287002E-1,3.6259842E-1,4.6180957E-3,-1.2923717E-1,2.7332664E-1,3.92165E-1,1.0738967E-1,1.6256107E-1,-4.0144795E-1,-2.0028462E-1,2.7554467E-1,2.2051509E-1,3.7885752E-1,-2.0583391E-1,-3.9242655E-1,-2.0416227E-1,2.1517439E-1,2.730132E-1,-3.1379026E-1,9.4004914E-2,-2.9302722E-1,-3.5573363E-1,2.8985414E-1,3.9123115E-1,3.177785E-2,-4.5153555E-1,1.7883308E-2,-1.0477879E-1,3.7450165E-1,4.1689834E-1,5.943687E-2,-1.8631043E-1,1.6076174E-1,-1.9519483E-1,-4.240117E-1,3.3203503E-1,-5.751862E-2,1.7855366E-1,4.4260713E-1,-2.8532688E-2,-4.1466212E-1,9.67157E-2,4.1923794E-1,-2.188073E-2,-4.2967892E-1,-2.1380141E-1,2.4984658E-1,3.6326207E-3,-4.7558576E-1,1.5841925E-1,-2.8979075E-1,4.0577102E-2,-3.850235E-1,4.758413E-1,-1.823613E-1,-4.506304E-1,-1.5753713E-1,-4.1875258E-1,-9.011988E-2,-3.09515E-1,1.6736135E-1],"categories":[],"categories_nodes":[],"categories_segments":[],"categories_sizes":[],"default_left":[0,0,0,0,0,0,0,0,0,0,0,0,0,0,0,0,0,0,0,0,0,0,0,0,0,0,0,0,0,0,0,0,0,0,0,0,0,0,0,0,0,0,0,0,0,0,0,0,0,0,0,0,0,0,0,0,0,0,0,0,0,0,0,0,0,0,0,0,0,0,0,0,0,0,0,0,0,0,0,0,0,0,0,0,0,0,0,0,0,0,0,0,0,0,0,0,0,0,0,0,0,0,0,0,0,0,0,0,0,0,0,0,0,0,0,0,0,0,0,0,0,0,0,0,0,0,0,0,0,0,0,0,0,0,0,0,0,0,0,0,0,0,0,0,0,0,0,0,0,0,0,0,0,0,0,0,0,0,0,0,0,0,0,0,0,0,0,0,0,0,0],"id":1,"left_children":[1,3,5,7,9,11,13,15,17,19,21,23,25,27,29,31,33,35,37,39,41,43,45,47,49,51,53,55,57,59,-1,61,63,65,67,69,71,73,75,77,79,-1,81,83,85,-1,87,89,-1,91,93,95,97,-1,99,101,103,105,-1,-1,-1,107,109,111,113,115,117,119,121,123,125,127,129,131,133,135,137,139,141,143,145,-1,-1,-1,147,149,-1,151,-1,-1,-1,153,155,157,159,161,-1,-1,163,-1,165,-1,-1,167,169,-1,-1,-1,-1,-1,-1,-1,-1,-1,-1,-1,-1,-1,-1,-1,-1,-1,-1,-1,-1,-1,-1,-1,-1,-1,-1,-1,-1,-1,-1,-1,-1,-1,-1,-1,-1,-1,-1,-1,-1,-1,-1,-1,-1,-1,-1,-1,-1,-1,-1,-1,-1,-1,-1,-1,-1,-1,-1,-1,-1,-1,-1,-1,-1,-1,-1],"loss_changes":[7.1664185E2,2.9018674E2,3.2033142E1,1.3010623E2,4.1721603E2,1.1573364E1,2.1517565E1,3.6499878E1,1.1143339E2,8.95726E1,1.3708694E1,6.444412E0,3.8415527E0,8.104035E0,6.0119457E0,3.226291E1,8.483124E0,1.0845482E1,4.2798157E0,4.908554E1,2.7075733E1,3.497616E1,3.7232056E0,4.74347E0,4.783592E0,3.9770203E0,1.3374329E0,7.4359317E0,4.3260183E0,1.8407726E0,0E0,1.343811E1,1.5185508E1,8.58605E0,6.226639E0,1.3387512E1,9.400988E0,4.4650307E0,8.919826E0,3.1960583E0,3.454721E1,0E0,3.569479E0,4.0569E0,1.3016062E0,0E0,1.4334106E0,2.842552E0,0E0,7.97938E0,3.9848213E0,4.0488434E0,7.854709E0,0E0,4.8181152E-1,7.422929E-1,4.618803E0,1.0762329E0,0E0,0E0,0E0,4.2625427E0,1.1230591E1,7.0298862E0,1.0811962E1,9.276682E0,8.608064E0,7.5450735E0,4.132599E0,8.095795E0,1.2298851E1,1.2772303E1,7.7438755E0,5.3680477E0,2.9880028E0,2.084284E0,5.067503E0,3.5261173E0,1.7218938E0,7.752014E0,2.0455565E0,0E0,0E0,0E0,4.429245E-1,1.484745E0,0E0,3.6181154E0,0E0,0E0,0E0,2.6399565E0,6.9183226E0,2.8949242E0,5.6064935E0,3.6371002E0,0E0,0E0,5.731946E0,0E0,2.9937744E-2,0E0,0E0,1.046382E0,4.304338E0,0E0,0E0,0E0,0E0,0E0,0E0,0E0,0E0,0E0,0E0,0E0,0E0,0E0,0E0,0E0,0E0,0E0,0E0,0E0,0E0,0E0,0E0,0E0,0E0,0E0,0E0,0E0,0E0,0E0,0E0,0E0,0E0,0E0,0E0,0E0,0E0,0E0,0E0,0E0,0E0,0E0,0E0,0E0,0E0,0E0,0E0,0E0,0E0,0E0,0E0,0E0,0E0,0E0,0E0,0E0,0E0,0E0,0E0,0E0,0E0,0E0,0E0,0E0,0E0,0E0,0E0],"parents":[2147483647,0,0,1,1,2,2,3,3,4,4,5,5,6,6,7,7,8,8,9,9,10,10,11,11,12,12,13,13,14,14,15,15,16,16,17,17,18,18,19,19,20,20,21,21,22,22,23,23,24,24,25,25,26,26,27,27,28,28,29,29,31,31,32,32,33,33,34,34,35,35,36,36,37,37,38,38,39,39,40,40,42,42,43,43,44,44,46,46,47,47,49,49,50,50,51,51,52,52,54,54,55,55,56,56,57,57,61,61,62,62,63,63,64,64,65,65,66,66,67,67,68,68,69,69,70,70,71,71,72,72,73,73,74,74,75,75,76,76,77,77,78,78,79,79,80,80,84,84,85,85,87,87,91,91,92,92,93,93,94,94,95,95,98,98,100,100,103,103,104,104],"right_children":[2,4,6,8,10,12,14,16,18,20,22,24,26,28,30,32,34,36,38,40,42,44,46,48,50,52,54,56,58,60,-1,62,64,66,68,70,72,74,76,78,80,-1,82,84,86,-1,88,90,-1,92,94,96,98,-1,100,102,104,106,-1,-1,-1,108,110,112,114,116,118,120,122,124,126,128,130,132,134,136,138,140,142,144,146,-1,-1,-1,148,150,-1,152,-1,-1,-1,154,156,158,160,162,-1,-1,164,-1,166,-1,-1,168,170,-1,-1,-1,-1,-1,-1,-1,-1,-1,-1,-1,-1,-1,-1,-1,-1,-1,-1,-1,-1,-1,-1,-1,-1,-1,-1,-1,-1,-1,-1,-1,-1,-1,-1,-1,-1,-1,-1,-1,-1,-1,-1,-1,-1,-1,-1,-1,-1,-1,-1,-1,-1,-1,-1,-1,-1,-1,-1,-1,-1,-1,-1,-1,-1,-1,-1],"split_conditions":[1.1224617E1,1E0,9.594241E0,9.615139E0,6.9688506E0,1.1838748E1,1.3058866E1,8.109225E0,9.594241E0,6.9650803E0,9.278173E-2,3.9512436E0,1.3696944E1,1.7507512E-2,6.0588732E-2,8.665096E0,-3.643659E-2,1.068251E-2,3.0822303E-2,3.5553482E0,1.7382708E0,1.9459101E0,5.9738097E0,2.5060948E-2,9.195532E-4,3.6433555E-2,-5.5377323E-2,1.1568152E1,-3.2213046E-3,-1.6517645E-2,1.7326927E-1,6.931472E-1,-1.5882967E-2,-8.474222E-3,-3.332903E-2,2.7725887E0,2.4969014E-3,-1.603132E-2,-1.35023575E-2,2.2376757E-2,2.2273226E0,-4.3465444E-1,6.891626E0,7.153834E0,8.511578E0,-5.5593953E-2,7.266129E0,3.2237653E-2,-3.0163023E-1,2.6390574E0,2.4874486E-2,6.464153E-2,-1.864763E-2,-1.1279438E-1,-5.6540497E-2,2.233768E-3,-3.5787844E-3,-4.8257047E-3,-4.571006E-2,-3.0931907E-2,-4.491454E-1,1.0986123E0,7.6079834E-4,1.7450871E-2,4.0488478E-2,2.2372156E-2,8.774622E0,-1.0252345E-2,-2.69456E-2,-3.937982E-3,5.098449E-3,-3.2450285E-2,1.9674009E-2,1.670457E-2,6.1555542E-2,3.5598448E-3,3.3670971E-3,2.5649493E0,4.317488E0,4.5325994E0,5.8104796E-3,4.1015545E-1,2.2932698E-3,-8.807934E-2,1.4062734E-2,5.6869755E0,-0E0,7.3639135E0,4.4937235E-1,-7.073139E-2,3.6794907E-1,-2.1416914E-2,-2.1897629E-2,-1.5112232E-2,-3.204921E-2,-6.0154743E-2,7.986235E-2,-3.49178E-1,2.6390574E0,-1.1123727E-1,6.952964E-2,3.731156E-1,4.6685092E-2,7.116984E-4,-2.4080304E-2,4.7296718E-1,7.929725E-2,2.9611638E-2,-3.0615366E-1,1.2921795E-1,1.9287002E-1,3.6259842E-1,4.6180957E-3,-1.2923717E-1,2.7332664E-1,3.92165E-1,1.0738967E-1,1.6256107E-1,-4.0144795E-1,-2.0028462E-1,2.7554467E-1,2.2051509E-1,3.7885752E-1,-2.0583391E-1,-3.9242655E-1,-2.0416227E-1,2.1517439E-1,2.730132E-1,-3.1379026E-1,9.4004914E-2,-2.9302722E-1,-3.5573363E-1,2.8985414E-1,3.9123115E-1,3.177785E-2,-4.5153555E-1,1.7883308E-2,-1.0477879E-1,3.7450165E-1,4.1689834E-1,5.943687E-2,-1.8631043E-1,1.6076174E-1,-1.9519483E-1,-4.240117E-1,3.3203503E-1,-5.751862E-2,1.7855366E-1,4.4260713E-1,-2.8532688E-2,-4.1466212E-1,9.67157E-2,4.1923794E-1,-2.188073E-2,-4.2967892E-1,-2.1380141E-1,2.4984658E-1,3.6326207E-3,-4.7558576E-1,1.5841925E-1,-2.8979075E-1,4.0577102E-2,-3.850235E-1,4.758413E-1,-1.823613E-1,-4.506304E-1,-1.5753713E-1,-4.1875258E-1,-9.011988E-2,-3.09515E-1,1.6736135E-1],"split_indices":[64,73,65,64,65,64,64,65,65,64,70,65,64,12,21,64,59,26,13,64,69,66,64,0,12,30,38,64,61,13,0,66,49,63,30,67,8,24,18,33,71,0,65,65,65,0,65,60,0,67,29,14,40,0,3,28,50,53,0,0,0,68,26,31,41,21,64,14,40,38,42,34,48,5,60,30,20,67,65,64,6,0,0,0,0,64,0,64,0,0,0,47,59,0,25,27,0,0,67,0,15,0,0,39,28,0,0,0,0,0,0,0,0,0,0,0,0,0,0,0,0,0,0,0,0,0,0,0,0,0,0,0,0,0,0,0,0,0,0,0,0,0,0,0,0,0,0,0,0,0,0,0,0,0,0,0,0,0,0,0,0,0,0,0,0,0,0,0,0,0,0],"split_type":[0,0,0,0,0,0,0,0,0,0,0,0,0,0,0,0,0,0,0,0,0,0,0,0,0,0,0,0,0,0,0,0,0,0,0,0,0,0,0,0,0,0,0,0,0,0,0,0,0,0,0,0,0,0,0,0,0,0,0,0,0,0,0,0,0,0,0,0,0,0,0,0,0,0,0,0,0,0,0,0,0,0,0,0,0,0,0,0,0,0,0,0,0,0,0,0,0,0,0,0,0,0,0,0,0,0,0,0,0,0,0,0,0,0,0,0,0,0,0,0,0,0,0,0,0,0,0,0,0,0,0,0,0,0,0,0,0,0,0,0,0,0,0,0,0,0,0,0,0,0,0,0,0,0,0,0,0,0,0,0,0,0,0,0,0,0,0,0,0,0,0],"sum_hessian":[2.411324E3,1.9924034E3,4.1892053E2,1.5689945E3,4.234089E2,3.8080426E2,3.811627E1,1.3460328E3,2.2296178E2,3.1394412E2,1.0946478E2,5.6334553E1,3.2446973E2,2.3291416E1,1.4824852E1,1.15943E3,1.8660278E2,1.7015837E2,5.2803406E1,2.901326E2,2.3811546E1,2.757749E1,8.188729E1,5.5897584E0,5.0744793E1,1.6476349E2,1.5970622E2,1.4878744E1,8.412671E0,1.3635772E1,1.1890802E0,1.0720983E3,8.733178E1,5.0764187E1,1.358386E2,1.1696675E2,5.3191612E1,4.1081738E1,1.1721667E1,1.3341859E1,2.7679074E2,3.7209554E0,2.0090591E1,1.9260427E1,8.317063E0,1.2486122E0,8.063868E1,4.1373277E0,1.4524307E0,1.7835081E1,3.2909714E1,1.5698546E2,7.7780437E0,1.8788251E0,1.578274E2,3.3437662E0,1.1534978E1,6.246552E0,2.1661196E0,1.1849378E0,1.2450833E1,1.2290722E1,1.0598075E3,1.9067484E1,6.82643E1,4.277076E1,7.9934254E0,1.0928227E1,1.2491036E2,9.1989334E1,2.4977423E1,2.2700905E1,3.049071E1,2.650158E0,3.843158E1,2.626187E0,9.095481E0,9.925467E0,3.416392E0,2.7038794E2,6.4027853E0,1.7927431E1,2.1631606E0,1.2108964E0,1.8049532E1,7.317063E0,1E0,1.3634246E1,6.700443E1,1.7267965E0,2.4105313E0,8.142067E0,9.693014E0,1.8235691E1,1.4674022E1,1.5556543E2,1.4200265E0,4.7003007E0,3.077743E0,1.1513559E0,1.5667604E2,2.1618502E0,1.181916E0,5.5087957E0,6.0261827E0,5.038195E0,1.2083567E0,6.4974008E0,5.7933216E0,4.3162653E2,6.2818097E2,1.0177762E1,8.889722E0,6.2570362E1,5.693936E0,1.8138687E1,2.4632074E1,4.611682E0,3.3817437E0,3.8990822E0,7.0291452E0,2.3408817E1,1.0150155E2,4.7524895E1,4.4464436E1,1.5918565E1,9.058857E0,3.187093E0,1.9513813E1,2.5855711E1,4.634997E0,1.2212864E0,1.4288715E0,3.6029922E1,2.4016578E0,1.4284673E0,1.1977198E0,2.153261E0,6.9422197E0,5.0634837E0,4.861983E0,2.2122812E0,1.2041111E0,1.668264E1,2.537053E2,5.2262635E0,1.1765215E0,2.5695634E0,1.5479968E1,1.2027013E0,6.114362E0,6.1942396E0,7.4400063E0,1.9198782E0,6.2221885E0,4.365361E0,5.3276525E0,1.1945441E0,1.7041145E1,2.4207664E0,1.2253256E1,1.6448971E0,1.5392053E2,1.6596342E0,1.4181087E0,1.5527608E2,1.3999549E0,3.6053343E0,1.9034615E0,1.4593027E0,4.5668797E0],"tree_param":{"num_deleted":"0","num_feature":"75","num_nodes":"171","size_leaf_vector":"1"}},{"base_weights":[-5.359676E-3,1.9892E-1,-9.1353977E-1,3.4911102E-1,-3.9874238E-1,-1.017327E0,-5.6750394E-2,4.2747042E-1,-5.658209E-2,-9.005472E-1,9.614948E-1,-7.84001E-1,-1.1884811E0,3.4905243E-1,-1.0006651E0,3.53175E-1,6.6602576E-1,-4.3613136E-1,8.062057E-1,-1.0291414E0,5.865778E-1,4.0071255E-1,1.184384E0,-8.0908805E-1,3.697435E-1,-1.0325669E0,-1.26667E0,-1.4977095E-1,7.4528444E-1,1.2354893E-1,-1.1876597E0,4.178146E-1,9.8498285E-2,-1.326758E-1,7.035891E-1,-1.0671629E-1,-6.6091496E-1,8.63227E-1,-4.4820464E-1,8.0513805E-2,-1.1379707E0,1.1753175E0,-8.532035E-2,-8.394318E-3,3.736488E-1,7.752806E-1,3.9094368E-1,1.1799381E-1,-8.585805E-1,1.6543064E-1,-1.0635055E0,-1.2787018E0,-3.306428E-1,2.996229E-1,-3.5139734E-1,8.757719E-1,-1.885621E-1,-3.8502604E-1,-8.075526E-2,1.0474363E-1,4.7086585E-1,3.0680224E-1,-2.0003746E-1,-1.2662514E0,4.0415165E-1,7.175367E-1,-2.5999203E-1,2.2791778E-1,-5.582091E-1,-1.178513E0,-4.7528487E-1,-1.9587018E-1,9.139056E-1,1.686408E-1,-3.7774494E-1,-3.5814857E-1,7.1567243E-1,-1.1885555E0,7.533466E-1,5.229597E-1,4.024164E-1,-9.871254E-1,6.56931E-1,5.9097314E-1,-4.3826956E-1,1.1350093E0,-5.9650826E-1,-8.154518E-1,8.3826023E-1,-9.597163E-1,-3.6262298E-1,-1.1782823E0,-6.6029495E-1,-7.0918456E-2,-1.2849159E0,6.451137E-2,-2.158434E-1,-7.331916E-1,4.404465E-1,-2.6783861E-2,1.0840132E0,8.4245756E-2,-2.4361978E-1,9.510343E-2,1.8201083E-1,2.3187843E-1,4.2974927E-2,-1.4711675E-1,6.85988E-2,5.306619E-3,-5.3477275E-1,3.296112E-1,-1.05701126E-1,2.8930476E-1,1.8554896E-1,-1.5517291E-1,1.6024542E-1,2.2614548E-1,-2.258299E-1,-3.9034677E-1,1.0109437E-1,1.6912559E-1,-1.696395E-1,5.3370606E-2,3.0779043E-1,2.2681227E-1,-2.1490721E-1,3.0261886E-1,3.0502075E-2,-3.6618567E-1,-1.3070245E-1,-3.8973648E-2,3.4438813E-1,-2.8369872E-2,2.817841E-1,-6.527107E-2,-3.7039584E-1,-2.4658649E-3,3.3486688E-1,-7.720076E-2,2.543894E-1,-2.5884786E-1,2.732384E-1,1.02496766E-1,3.6925185E-1,-1.8834257E-2,-2.8043124E-1,-7.770321E-3,-3.2392728E-1,-1.3338143E-1,4.0278167E-1,-3.3936197E-1,-1.9328465E-1,-2.0946439E-1,1.4763747E-1,-3.6070856E-1,-2.410367E-2,1.859822E-1,-3.000903E-1,-8.790198E-2,-3.874912E-1,7.855782E-2,-3.3613256E-1,2.822132E-1,-1.6117823E-1,-2.9079956E-1,2.3238654E-1,3.8915113E-1,9.278807E-2],"categories":[],"categories_nodes":[],"categories_segments":[],"categories_sizes":[],"default_left":[0,0,0,0,0,0,0,0,0,0,0,0,0,0,0,0,0,0,0,0,0,0,0,0,0,0,0,0,0,0,0,0,0,0,0,0,0,0,0,0,0,0,0,0,0,0,0,0,0,0,0,0,0,0,0,0,0,0,0,0,0,0,0,0,0,0,0,0,0,0,0,0,0,0,0,0,0,0,0,0,0,0,0,0,0,0,0,0,0,0,0,0,0,0,0,0,0,0,0,0,0,0,0,0,0,0,0,0,0,0,0,0,0,0,0,0,0,0,0,0,0,0,0,0,0,0,0,0,0,0,0,0,0,0,0,0,0,0,0,0,0,0,0,0,0,0,0,0,0,0,0,0,0,0,0,0,0,0,0,0,0,0,0,0,0,0,0,0,0],"id":2,"left_children":[1,3,5,7,9,11,13,15,17,19,21,23,25,27,29,31,33,35,37,39,41,43,45,47,-1,49,51,53,55,-1,57,59,61,63,65,67,69,71,73,75,77,79,81,83,-1,85,-1,87,89,-1,91,93,95,-1,97,99,-1,-1,-1,101,103,105,107,109,111,113,-1,115,117,119,121,-1,123,-1,-1,125,127,129,131,133,-1,135,137,139,141,143,145,147,149,151,153,155,157,-1,159,-1,-1,161,163,165,167,-1,-1,-1,-1,-1,-1,-1,-1,-1,-1,-1,-1,-1,-1,-1,-1,-1,-1,-1,-1,-1,-1,-1,-1,-1,-1,-1,-1,-1,-1,-1,-1,-1,-1,-1,-1,-1,-1,-1,-1,-1,-1,-1,-1,-1,-1,-1,-1,-1,-1,-1,-1,-1,-1,-1,-1,-1,-1,-1,-1,-1,-1,-1,-1,-1,-1,-1,-1],"loss_changes":[4.1846625E2,1.6543275E2,3.6773865E1,4.68237E1,2.5360991E2,1.3819397E1,1.7897005E1,2.1634842E1,7.8681915E1,5.2430344E1,1.2058533E1,9.052795E0,1.2660828E0,6.5904226E0,4.1954107E0,1.5483452E1,8.851181E0,1.2278238E1,5.639141E0,3.0258636E1,8.884558E0,1.0389072E1,2.4509964E0,7.3457565E0,0E0,4.3075714E0,1.111206E0,3.904104E0,3.8553333E0,0E0,7.670593E-1,1.2437759E1,1.2014194E1,9.002832E0,6.7312317E0,1.0527044E1,8.94569E0,6.019577E0,3.8630095E0,6.7328906E0,2.2666351E1,5.880852E-1,8.214398E0,5.727827E0,0E0,9.80473E0,0E0,6.6544337E0,7.176178E0,0E0,2.6844711E0,5.6503296E-1,8.076767E-1,0E0,4.4925594E0,3.2719507E0,0E0,0E0,0E0,1.8021784E1,1.3237595E1,8.550397E0,1.0020376E1,3.1646762E0,5.7606506E0,6.1757812E0,0E0,9.459551E0,8.120953E0,5.1668167E0,7.298996E0,0E0,5.484726E0,0E0,0E0,6.295141E0,1.6660943E0,4.8276978E0,2.428536E0,1.131148E0,0E0,7.795558E-1,2.0867026E0,2.2437048E0,8.194209E0,7.1977615E-1,7.5343513E-1,8.850031E-1,4.159319E0,5.9783554E0,8.092898E0,1.4094162E0,8.826576E0,0E0,5.0901794E-1,0E0,0E0,4.0236807E0,3.005444E0,3.9313498E0,1.917923E0,0E0,0E0,0E0,0E0,0E0,0E0,0E0,0E0,0E0,0E0,0E0,0E0,0E0,0E0,0E0,0E0,0E0,0E0,0E0,0E0,0E0,0E0,0E0,0E0,0E0,0E0,0E0,0E0,0E0,0E0,0E0,0E0,0E0,0E0,0E0,0E0,0E0,0E0,0E0,0E0,0E0,0E0,0E0,0E0,0E0,0E0,0E0,0E0,0E0,0E0,0E0,0E0,0E0,0E0,0E0,0E0,0E0,0E0,0E0,0E0,0E0,0E0,0E0,0E0,0E0,0E0,0E0,0E0],"parents":[2147483647,0,0,1,1,2,2,3,3,4,4,5,5,6,6,7,7,8,8,9,9,10,10,11,11,12,12,13,13,14,14,15,15,16,16,17,17,18,18,19,19,20,20,21,21,22,22,23,23,25,25,26,26,27,27,28,28,30,30,31,31,32,32,33,33,34,34,35,35,36,36,37,37,38,38,39,39,40,40,41,41,42,42,43,43,45,45,47,47,48,48,50,50,51,51,52,52,54,54,55,55,59,59,60,60,61,61,62,62,63,63,64,64,65,65,67,67,68,68,69,69,70,70,72,72,75,75,76,76,77,77,78,78,79,79,81,81,82,82,83,83,84,84,85,85,86,86,87,87,88,88,89,89,90,90,91,91,92,92,94,94,97,97,98,98,99,99,100,100],"right_children":[2,4,6,8,10,12,14,16,18,20,22,24,26,28,30,32,34,36,38,40,42,44,46,48,-1,50,52,54,56,-1,58,60,62,64,66,68,70,72,74,76,78,80,82,84,-1,86,-1,88,90,-1,92,94,96,-1,98,100,-1,-1,-1,102,104,106,108,110,112,114,-1,116,118,120,122,-1,124,-1,-1,126,128,130,132,134,-1,136,138,140,142,144,146,148,150,152,154,156,158,-1,160,-1,-1,162,164,166,168,-1,-1,-1,-1,-1,-1,-1,-1,-1,-1,-1,-1,-1,-1,-1,-1,-1,-1,-1,-1,-1,-1,-1,-1,-1,-1,-1,-1,-1,-1,-1,-1,-1,-1,-1,-1,-1,-1,-1,-1,-1,-1,-1,-1,-1,-1,-1,-1,-1,-1,-1,-1,-1,-1,-1,-1,-1,-1,-1,-1,-1,-1,-1,-1,-1,-1,-1,-1],"split_conditions":[1.0895609E1,1E0,9.594241E0,9.163144E0,6.906755E0,1.26842985E1,1.3058866E1,7.4999766E0,8.903272E0,1.6323484E0,7.385231E0,1.7382708E0,1.3696944E1,-2.728521E-3,-5.5666126E-2,7.0791845E0,-1.657147E-2,1.141819E-2,1.8505119E-2,4.2904596E0,1.3834507E1,7.6558642E0,1.7382708E0,2.4849067E0,3.697435E-1,-2.9983498E-2,6.96054E-2,5.293305E0,9.723999E-3,1.2354893E-1,4.3831024E-2,2.4849067E0,-9.282639E-3,-1.4654328E-2,5.7805054E-2,7.538935E-3,-1.3116582E-3,-3.7246466E-2,-1.42594725E-2,5.043425E0,5.3201604E0,5.7170277E0,4.3086424E0,4.189655E0,3.736488E-1,1.9459101E0,3.9094368E-1,-7.397365E-3,2.730422E-2,1.6543064E-1,1.6645448E-2,-7.2847925E-2,3.2880597E-2,2.996229E-1,1.1430446E-2,1.1631262E-2,-1.885621E-1,-3.8502604E-1,-8.075526E-2,1.1465469E-2,2.4454655E-2,2.8967215E-3,2.5999721E-2,-3.5643964E-3,-5.934187E-3,-3.1123033E-2,-2.5999203E-1,-4.536813E-3,1.735027E-3,4.243212E-2,-2.0669631E-3,-1.9587018E-1,-2.986609E-2,1.686408E-1,-3.7774494E-1,1.609438E0,1.0986123E0,6.8762646E0,6.902743E0,4.3583403E0,4.024164E-1,4.3307333E0,7.148346E0,-9.323837E-4,2.1177604E0,1.4062734E-2,-9.323398E-4,1.684125E-2,-1.698464E-2,1.5498584E-2,3.7138622E-2,5.3917516E-2,-1.715925E-2,-7.0918456E-2,-4.6495486E-2,6.451137E-2,-2.158434E-1,-3.130398E-2,2.5638038E-2,-1.3584683E-2,2.1837382E-2,8.4245756E-2,-2.4361978E-1,9.510343E-2,1.8201083E-1,2.3187843E-1,4.2974927E-2,-1.4711675E-1,6.85988E-2,5.306619E-3,-5.3477275E-1,3.296112E-1,-1.05701126E-1,2.8930476E-1,1.8554896E-1,-1.5517291E-1,1.6024542E-1,2.2614548E-1,-2.258299E-1,-3.9034677E-1,1.0109437E-1,1.6912559E-1,-1.696395E-1,5.3370606E-2,3.0779043E-1,2.2681227E-1,-2.1490721E-1,3.0261886E-1,3.0502075E-2,-3.6618567E-1,-1.3070245E-1,-3.8973648E-2,3.4438813E-1,-2.8369872E-2,2.817841E-1,-6.527107E-2,-3.7039584E-1,-2.4658649E-3,3.3486688E-1,-7.720076E-2,2.543894E-1,-2.5884786E-1,2.732384E-1,1.02496766E-1,3.6925185E-1,-1.8834257E-2,-2.8043124E-1,-7.770321E-3,-3.2392728E-1,-1.3338143E-1,4.0278167E-1,-3.3936197E-1,-1.9328465E-1,-2.0946439E-1,1.4763747E-1,-3.6070856E-1,-2.410367E-2,1.859822E-1,-3.000903E-1,-8.790198E-2,-3.874912E-1,7.855782E-2,-3.3613256E-1,2.822132E-1,-1.6117823E-1,-2.9079956E-1,2.3238654E-1,3.8915113E-1,9.278807E-2],"split_indices":[64,73,65,64,65,64,64,65,65,71,65,69,64,47,2,64,31,11,22,64,72,64,69,65,0,4,24,66,53,0,31,66,53,45,47,49,14,10,37,65,69,65,69,66,0,66,0,28,58,0,26,37,4,0,50,57,0,0,0,49,20,4,56,58,6,22,0,8,60,0,20,0,40,0,0,64,66,64,64,69,0,66,64,43,71,0,43,0,45,3,29,52,1,0,55,0,0,53,29,27,15,0,0,0,0,0,0,0,0,0,0,0,0,0,0,0,0,0,0,0,0,0,0,0,0,0,0,0,0,0,0,0,0,0,0,0,0,0,0,0,0,0,0,0,0,0,0,0,0,0,0,0,0,0,0,0,0,0,0,0,0,0,0,0,0,0,0,0,0],"split_type":[0,0,0,0,0,0,0,0,0,0,0,0,0,0,0,0,0,0,0,0,0,0,0,0,0,0,0,0,0,0,0,0,0,0,0,0,0,0,0,0,0,0,0,0,0,0,0,0,0,0,0,0,0,0,0,0,0,0,0,0,0,0,0,0,0,0,0,0,0,0,0,0,0,0,0,0,0,0,0,0,0,0,0,0,0,0,0,0,0,0,0,0,0,0,0,0,0,0,0,0,0,0,0,0,0,0,0,0,0,0,0,0,0,0,0,0,0,0,0,0,0,0,0,0,0,0,0,0,0,0,0,0,0,0,0,0,0,0,0,0,0,0,0,0,0,0,0,0,0,0,0,0,0,0,0,0,0,0,0,0,0,0,0,0,0,0,0,0,0],"sum_hessian":[2.2536267E3,1.8404333E3,4.1319324E2,1.4711525E3,3.6928098E2,3.6838193E2,4.4811333E1,1.2329543E3,2.3819807E2,2.7000967E2,9.927128E1,1.5824072E2,2.1014119E2,3.1779194E1,1.3032137E1,9.420453E2,2.9090903E2,1.6576906E2,7.2429016E1,2.4880322E2,2.120646E1,2.9030144E1,7.0241135E1,1.5688763E2,1.3530818E0,7.493058E1,1.3521062E2,1.4343688E1,1.7435507E1,1.3830075E0,1.1649129E1,7.508351E2,1.9121025E2,1.2953316E1,2.7795572E2,6.7834274E1,9.7934784E1,6.957807E1,2.8509426E0,2.224517E1,2.2655806E2,1.0903339E1,1.0303122E1,2.0225512E1,8.804632E0,1.7496872E1,5.2744263E1,7.8808722E0,1.4900676E2,1.1132016E0,7.3817375E1,1.3313322E2,2.0773973E0,1.5516531E0,1.2792034E1,1.6254194E1,1.1813116E0,1.018944E1,1.4596894E0,1.09227264E2,6.416078E2,1.1260922E2,7.860102E1,3.7262092E0,9.227107E0,2.7604675E2,1.9089549E0,3.9243362E1,2.859091E1,2.4439802E1,7.349499E1,1.8661516E0,6.771192E1,1.4060217E0,1.4449208E0,1.3415851E1,8.82932E0,2.2101831E2,5.539742E0,3.0543344E0,7.849005E0,4.5026627E0,5.8004584E0,8.2909E0,1.1934611E1,1.3998583E1,3.4982886E0,3.374918E0,4.5059543E0,1.2299128E2,2.6015484E1,5.5964455E1,1.7852922E1,1.0204029E0,1.3211282E2,1.0503433E0,1.0270541E0,8.680654E0,4.1113806E0,3.2105358E0,1.3043659E1,9.221152E1,1.7015753E1,3.0241452E2,3.3919327E2,2.8281338E1,8.432789E1,4.6776295E1,3.1824728E1,1.3456736E0,2.3805356E0,4.5746374E0,4.652469E0,7.65482E1,1.9949855E2,1.1229494E1,2.8013868E1,3.3209596E0,2.526995E1,2.2740906E1,1.6988965E0,5.4499826E0,6.8045E1,9.28929E0,5.842263E1,2.993649E0,1.0422201E1,5.5415125E0,3.2878077E0,2.1139427E2,9.624041E0,1.9178442E0,3.621898E0,1.5411732E0,1.5131612E0,1.5530988E0,2.949564E0,2.7704182E0,3.0300403E0,1.9273913E0,6.363509E0,9.351939E0,2.5826719E0,2.00068E0,1.1997903E1,1.8169742E0,1.6813146E0,1.1218011E0,2.2531168E0,1.304993E0,3.200961E0,7.799954E1,4.499174E1,1.881246E1,7.2030253E0,5.467033E1,1.2941241E0,3.5736442E0,1.4279279E1,1.1893444E0,1.3092348E2,2.5225875E0,6.1580663E0,2.7447915E0,1.3665892E0,1.3790592E0,1.8314764E0,9.700328E0,3.3433318E0],"tree_param":{"num_deleted":"0","num_feature":"75","num_nodes":"169","size_leaf_vector":"1"}},{"base_weights":[-7.852271E-3,1.2458609E-1,-9.2730135E-1,-4.004505E-2,4.2669585E-1,-7.377759E-1,-1.12882E0,1.3358024E-1,-7.1852446E-1,3.65557E-1,1.0695271E0,-8.111296E-1,8.876476E-3,-1.1465961E0,-1.580734E-1,2.2244664E-1,-4.7088388E-1,-8.7048995E-1,5.8066916E-1,4.6174324E-1,2.441217E-2,-1.02881365E-1,1.1079589E0,-8.7421906E-1,-1.3067274E-1,4.7962105E-1,-6.328209E-1,-5.793051E-1,-1.1661065E0,1.3577542E-1,-2.1849962E-1,3.0000094E-1,-1.2634814E-4,-5.5392134E-1,1.7979567E-1,1.0609275E-1,-9.794008E-1,-2.4064267E-1,9.502065E-1,3.7831804E-1,6.4555204E-1,-3.6613056E-1,6.040383E-1,7.0943797E-1,3.5751706E-1,-5.166812E-1,-9.7182924E-1,3.6323816E-1,-4.1427186E-1,-1.8403E-1,8.1175715E-1,-9.5251024E-1,8.028354E-2,-2.9826114E-1,1.7240761E-1,-9.1734394E-2,-1.1728891E0,3.8971296E-1,8.343765E-2,-5.948248E-1,1.2296097E-1,-1.3900208E-1,-7.2498673E-1,6.194313E-1,-7.011269E-1,-1.438868E-1,9.421144E-1,-1.0242436E0,9.3843186E-1,-6.40784E-1,2.6652446E-1,3.503463E-1,3.1073973E-1,4.7585464E-1,2.1325361E-2,7.208983E-1,5.1236097E-2,-1.9032335E-1,-7.776768E-1,6.7896736E-1,-4.7521648E-1,-8.144481E-2,9.353118E-1,3.4205082E-1,-7.873402E-1,-1.0779077E-1,-1.0159128E0,3.597139E-1,-8.580037E-1,-3.6818027E-2,3.4673837E-1,-6.587859E-2,-3.2870185E-1,-9.557713E-2,-1.1806483E0,1.9368654E-1,9.1049194E-2,-4.16967E-2,1.1833162E-1,-6.5993816E-2,-3.674434E-1,-3.6407143E-2,1.1067032E-1,1.4973359E-1,-1.3711835E-1,2.3992164E-1,-2.309066E-1,-2.2374833E-1,3.371969E-1,1.4363334E-1,-3.4666687E-1,2.4574406E-1,-1.0585346E-1,3.453689E-1,2.831938E-2,-3.580353E-1,-2.2724377E-1,3.501652E-1,1.1397007E-2,1.13050915E-1,-3.0762213E-1,-2.2702508E-1,2.2696134E-1,1.6019717E-1,-7.931301E-3,1.4344059E-1,-7.730282E-2,8.1085876E-2,2.5837156E-1,1.1037388E-1,-3.0764133E-1,-1.5338135E-1,5.0339866E-2,-4.0402602E-2,-3.305927E-1,2.5063324E-1,4.9895898E-2,1.5022072E-1,-2.9059875E-1,1.5913965E-1,3.2446313E-1,4.1300866E-1,-1.8239424E-1,-3.1271347E-1,6.454606E-2,3.8324144E-1,-3.0588195E-1,9.6243665E-2,-3.1332082E-1,-2.3790047E-1,3.509976E-1,4.934968E-2,-3.2603002E-1,-3.5627672E-1,-1.0435305E-1],"categories":[],"categories_nodes":[],"categories_segments":[],"categories_sizes":[],"default_left":[0,0,0,0,0,0,0,0,0,0,0,0,0,0,0,0,0,0,0,0,0,0,0,0,0,0,0,0,0,0,0,0,0,0,0,0,0,0,0,0,0,0,0,0,0,0,0,0,0,0,0,0,0,0,0,0,0,0,0,0,0,0,0,0,0,0,0,0,0,0,0,0,0,0,0,0,0,0,0,0,0,0,0,0,0,0,0,0,0,0,0,0,0,0,0,0,0,0,0,0,0,0,0,0,0,0,0,0,0,0,0,0,0,0,0,0,0,0,0,0,0,0,0,0,0,0,0,0,0,0,0,0,0,0,0,0,0,0,0,0,0,0,0,0,0,0,0,0,0,0,0,0,0,0,0],"id":3,"left_children":[1,3,5,7,9,11,13,15,17,19,21,23,25,27,29,31,33,35,37,39,41,-1,43,45,47,49,51,53,55,-1,-1,57,59,61,63,65,67,69,71,73,75,77,79,81,-1,83,85,-1,87,-1,89,91,-1,-1,-1,-1,93,95,97,99,101,103,105,107,109,111,113,115,117,119,-1,-1,121,123,125,127,129,131,133,135,137,-1,139,141,143,145,147,149,151,-1,-1,-1,-1,-1,153,-1,-1,-1,-1,-1,-1,-1,-1,-1,-1,-1,-1,-1,-1,-1,-1,-1,-1,-1,-1,-1,-1,-1,-1,-1,-1,-1,-1,-1,-1,-1,-1,-1,-1,-1,-1,-1,-1,-1,-1,-1,-1,-1,-1,-1,-1,-1,-1,-1,-1,-1,-1,-1,-1,-1,-1,-1,-1,-1,-1],"loss_changes":[2.5483511E2,9.100116E1,9.230545E0,1.3968855E2,2.4971794E1,7.602173E0,1.9898529E0,5.0833298E1,4.8207146E1,1.9375053E1,3.3941574E0,5.306801E0,4.3495173E0,6.902008E-1,1.5214273E0,1.422369E1,6.657009E0,2.3153107E1,8.089834E0,6.8219223E0,2.9874744E1,0E0,9.669342E-1,3.5248032E0,5.025121E0,3.509404E0,2.010552E0,3.4871705E0,3.316803E-1,0E0,0E0,1.1839798E1,1.5732613E1,7.555954E0,6.0461392E0,4.8681574E0,1.7736801E1,4.5609856E0,2.1511002E0,1.1110199E1,6.341427E0,5.5596457E0,4.6175594E0,2.8906746E0,0E0,6.517052E0,3.2997665E0,0E0,3.935493E0,0E0,2.3255563E0,2.5467777E-1,0E0,0E0,0E0,0E0,3.9959717E-1,9.3313675E0,1.2524743E1,8.434033E0,1.074467E1,6.8706794E0,5.805485E0,7.8626094E0,3.3913257E0,3.9716513E0,8.388481E-1,7.7212677E0,9.8129416E-1,3.167103E0,0E0,0E0,3.4037862E0,7.337452E0,8.991155E0,7.756607E0,6.2088284E0,6.591111E0,4.707782E0,3.8778687E0,2.4287791E0,0E0,1.2263298E-2,7.854389E0,5.5273867E0,8.203672E0,3.5737305E0,5.1801567E0,1.8179212E0,0E0,0E0,0E0,0E0,0E0,2.5512695E-1,0E0,0E0,0E0,0E0,0E0,0E0,0E0,0E0,0E0,0E0,0E0,0E0,0E0,0E0,0E0,0E0,0E0,0E0,0E0,0E0,0E0,0E0,0E0,0E0,0E0,0E0,0E0,0E0,0E0,0E0,0E0,0E0,0E0,0E0,0E0,0E0,0E0,0E0,0E0,0E0,0E0,0E0,0E0,0E0,0E0,0E0,0E0,0E0,0E0,0E0,0E0,0E0,0E0,0E0,0E0,0E0,0E0,0E0,0E0,0E0],"parents":[2147483647,0,0,1,1,2,2,3,3,4,4,5,5,6,6,7,7,8,8,9,9,10,10,11,11,12,12,13,13,14,14,15,15,16,16,17,17,18,18,19,19,20,20,22,22,23,23,24,24,25,25,26,26,27,27,28,28,31,31,32,32,33,33,34,34,35,35,36,36,37,37,38,38,39,39,40,40,41,41,42,42,43,43,45,45,46,46,48,48,50,50,51,51,56,56,57,57,58,58,59,59,60,60,61,61,62,62,63,63,64,64,65,65,66,66,67,67,68,68,69,69,72,72,73,73,74,74,75,75,76,76,77,77,78,78,79,79,80,80,82,82,83,83,84,84,85,85,86,86,87,87,88,88,94,94],"right_children":[2,4,6,8,10,12,14,16,18,20,22,24,26,28,30,32,34,36,38,40,42,-1,44,46,48,50,52,54,56,-1,-1,58,60,62,64,66,68,70,72,74,76,78,80,82,-1,84,86,-1,88,-1,90,92,-1,-1,-1,-1,94,96,98,100,102,104,106,108,110,112,114,116,118,120,-1,-1,122,124,126,128,130,132,134,136,138,-1,140,142,144,146,148,150,152,-1,-1,-1,-1,-1,154,-1,-1,-1,-1,-1,-1,-1,-1,-1,-1,-1,-1,-1,-1,-1,-1,-1,-1,-1,-1,-1,-1,-1,-1,-1,-1,-1,-1,-1,-1,-1,-1,-1,-1,-1,-1,-1,-1,-1,-1,-1,-1,-1,-1,-1,-1,-1,-1,-1,-1,-1,-1,-1,-1,-1,-1,-1,-1,-1,-1],"split_conditions":[1.1838748E1,7.0604763E0,1.3599128E1,1E0,1.7382708E0,1.1146128E1,6.96054E-2,9.669599E0,1.5404451E0,9.615139E0,5.9738097E0,3.1689297E-2,5.1952247E-3,-2.7992925E-2,2.15036E-2,1.1095503E-2,2.3349347E-2,4.2904596E0,6.3062754E0,8.245646E0,9.594241E0,-1.02881365E-1,7.385231E0,4.983607E0,-2.3902103E-2,-4.78131E-2,7.533217E-3,2.7725887E0,-4.3146137E-2,1.3577542E-1,-2.1849962E-1,1.2779123E-2,-3.6286574E-3,-7.3151644E-3,2.4827406E-2,6.042633E0,5.472699E0,2.7725887E0,1.4359684E1,7.978654E0,4.4364743E-2,2.4554703E-2,5.0945874E-2,1.0176432E0,3.5751706E-1,-3.0680254E-2,-2.8084312E-2,3.6323816E-1,-1.5440128E-2,-1.8403E-1,-8.867906E-3,-3.6606338E-2,8.028354E-2,-2.9826114E-1,1.7240761E-1,-9.1734394E-2,-3.958505E-2,5.258484E-3,5.797671E-3,2.3945134E-2,-4.9625244E-3,-2.87575E-3,-6.860791E-2,-1.2555369E-3,-3.1832725E-2,1.0986123E0,1.0986123E0,1.0077205E1,6.3908E-1,2.1053808E-2,2.6652446E-1,3.503463E-1,9.2576945E-1,1.902033E-2,-2.693364E-2,-1.780591E-2,1.4922048E-2,-1.0412751E-2,2.7024099E-3,3.0822303E-2,-5.534554E-3,-8.144481E-2,7.3639135E0,3.4174228E-3,1.6647406E-2,1.8121334E-2,-5.209717E-2,2.2876766E-2,5.669881E0,-3.6818027E-2,3.4673837E-1,-6.587859E-2,-3.2870185E-1,-9.557713E-2,5.638475E-2,1.9368654E-1,9.1049194E-2,-4.16967E-2,1.1833162E-1,-6.5993816E-2,-3.674434E-1,-3.6407143E-2,1.1067032E-1,1.4973359E-1,-1.3711835E-1,2.3992164E-1,-2.309066E-1,-2.2374833E-1,3.371969E-1,1.4363334E-1,-3.4666687E-1,2.4574406E-1,-1.0585346E-1,3.453689E-1,2.831938E-2,-3.580353E-1,-2.2724377E-1,3.501652E-1,1.1397007E-2,1.13050915E-1,-3.0762213E-1,-2.2702508E-1,2.2696134E-1,1.6019717E-1,-7.931301E-3,1.4344059E-1,-7.730282E-2,8.1085876E-2,2.5837156E-1,1.1037388E-1,-3.0764133E-1,-1.5338135E-1,5.0339866E-2,-4.0402602E-2,-3.305927E-1,2.5063324E-1,4.9895898E-2,1.5022072E-1,-2.9059875E-1,1.5913965E-1,3.2446313E-1,4.1300866E-1,-1.8239424E-1,-3.1271347E-1,6.454606E-2,3.8324144E-1,-3.0588195E-1,9.6243665E-2,-3.1332082E-1,-2.3790047E-1,3.509976E-1,4.934968E-2,-3.2603002E-1,-3.5627672E-1,-1.0435305E-1],"split_indices":[64,65,64,73,69,65,24,64,71,64,64,49,49,8,52,49,52,64,64,65,65,0,65,65,8,59,43,67,55,0,0,45,11,18,9,65,69,67,72,64,20,12,56,70,0,27,3,0,38,0,47,63,0,0,0,0,32,0,48,17,38,21,59,15,43,64,66,72,71,57,0,0,70,23,22,39,51,23,41,13,4,0,64,16,50,16,27,29,65,0,0,0,0,0,18,0,0,0,0,0,0,0,0,0,0,0,0,0,0,0,0,0,0,0,0,0,0,0,0,0,0,0,0,0,0,0,0,0,0,0,0,0,0,0,0,0,0,0,0,0,0,0,0,0,0,0,0,0,0,0,0,0,0,0,0],"split_type":[0,0,0,0,0,0,0,0,0,0,0,0,0,0,0,0,0,0,0,0,0,0,0,0,0,0,0,0,0,0,0,0,0,0,0,0,0,0,0,0,0,0,0,0,0,0,0,0,0,0,0,0,0,0,0,0,0,0,0,0,0,0,0,0,0,0,0,0,0,0,0,0,0,0,0,0,0,0,0,0,0,0,0,0,0,0,0,0,0,0,0,0,0,0,0,0,0,0,0,0,0,0,0,0,0,0,0,0,0,0,0,0,0,0,0,0,0,0,0,0,0,0,0,0,0,0,0,0,0,0,0,0,0,0,0,0,0,0,0,0,0,0,0,0,0,0,0,0,0,0,0,0,0,0,0],"sum_hessian":[2.0908035E3,1.8283156E3,2.6248788E2,1.1839846E3,6.4433093E2,1.3767116E2,1.2481672E2,9.4337476E2,2.4060982E2,5.8980414E2,5.452684E1,1.2527715E2,1.2394009E1,1.2239431E2,2.422407E0,8.230104E2,1.2036439E2,2.1570856E2,2.4901262E1,4.598073E2,1.2999681E2,1.2344495E0,5.329239E1,1.1438687E2,1.0890282E1,7.2950134E0,5.0989947E0,5.089932E0,1.17304375E2,1.2694142E0,1.1529927E0,6.1008264E2,2.129277E2,1.06874176E2,1.3490208E1,2.1645283E1,1.9406328E2,7.8354516E0,1.706581E1,3.18368E2,1.414393E2,7.788648E1,5.2110325E1,1.0900627E1,4.239176E1,2.5880844E1,8.850603E1,1.3299643E0,9.560317E0,1.5027046E0,5.792309E0,3.7203033E0,1.3786916E0,3.845737E0,1.2441951E0,1.2780347E0,1.16026344E2,4.3081616E2,1.792665E2,3.585605E1,1.7707166E2,3.1728722E1,7.5145454E1,9.19711E0,4.293098E0,1.7300219E1,4.3450627E0,1.9008466E2,3.978625E0,6.1044703E0,1.7309813E0,1.2116313E1,4.9494967E0,2.497885E2,6.8579506E1,1.25336395E2,1.61029E1,5.559814E1,2.2288342E1,4.9074158E1,3.0361652E0,2.0024595E0,8.898168E0,6.139142E0,1.9741701E1,4.4636474E0,8.404238E1,3.5527408E0,6.0075765E0,1.7317517E0,4.0605574E0,1.0220169E0,2.6982865E0,1.4228952E0,1.1460345E2,1.0693091E2,3.2388525E2,1.048391E2,7.44274E1,2.3326082E1,1.2529965E1,8.9082855E1,8.798879E1,1.0364813E1,2.1363909E1,1.6592731E0,7.348618E1,2.3527474E0,6.8443627E0,1.1788051E0,3.1142926E0,2.5638673E0,1.4736352E1,3.1981134E0,1.1469489E0,1.14184296E2,7.590036E1,2.9362957E0,1.0423294E0,1.6799557E0,4.4245143E0,1.2525865E0,3.6969104E0,2.2382018E2,2.5968325E1,2.5733019E1,4.2846485E1,3.0459936E1,9.487646E1,1.2951851E1,3.1510487E0,2.909538E1,2.6502762E1,7.946918E0,1.4341424E1,3.711561E1,1.195855E1,1.0146288E0,2.0215364E0,3.5891337E0,5.309034E0,2.7237265E0,3.4154158E0,1.57062025E1,4.035499E0,1.6126437E0,2.851004E0,1.5397083E0,8.250268E1,1.4752898E0,2.0774508E0,1.1496965E0,4.8578796E0,1.1323372E2,1.3697299E0],"tree_param":{"num_deleted":"0","num_feature":"75","num_nodes":"155","size_leaf_vector":"1"}},{"base_weights":[-9.485422E-3,9.277584E-2,-8.0818945E-1,-3.170817E-2,3.2876956E-1,-6.149624E-1,-1.0312048E0,9.56968E-2,-6.044805E-1,2.7640024E-1,9.720942E-1,-6.8849313E-1,-6.0355816E-2,-1.0508336E0,-1.4271979E-1,2.2391735E-1,-1.7511126E-1,-7.2195464E-1,7.534742E-1,3.201266E-1,-1.6208434E-1,-8.535735E-2,1.0146942E0,-3.4486806E-1,-8.046401E-1,-7.3139924E-1,2.8012648E-1,-7.4714077E-1,-1.1069634E0,-2.0861664E-1,1.3043256E-1,2.626938E-1,-2.3266716E-1,1.3447824E-2,-3.855192E-1,5.6941967E-2,-8.4238964E-1,-2.3823573E-1,9.5371884E-1,4.7132048E-1,2.102122E-1,-6.6524506E-1,2.6459637E-1,5.89892E-1,3.323139E-1,3.2444465E-1,-6.741621E-1,-8.3329827E-1,1.7719804E-1,6.1282236E-2,-3.3969048E-1,-1.7974412E-1,8.380472E-1,-8.798418E-1,1.6201575E-1,-2.566661E-2,-1.1275525E0,4.0411234E-1,1.3891646E-1,-9.1502815E-1,1.7835955E-1,-8.0687486E-2,6.0180646E-1,8.265714E-3,-5.7582176E-1,-3.484678E-1,6.804636E-1,-9.2293143E-1,2.688802E-1,4.0445793E-1,1.1106358E0,5.482869E-1,-5.617797E-2,3.5133195E-1,-8.6074285E-3,-8.555888E-1,6.8158585E-1,8.014356E-1,-1.1107751E-1,-1.1033455E-1,8.483105E-1,-3.4886107E-1,1.1182562E0,2.8879818E-1,-8.343761E-1,-9.0993047E-1,-2.615588E-1,-5.6551844E-1,2.50698E-1,3.3288732E-1,-3.7452847E-2,-9.8242205E-1,7.1234055E-2,-6.748089E-2,-1.1394134E0,2.4956137E-1,9.1982625E-2,-4.07171E-1,4.953657E-2,-5.5484813E-1,-1.2919684E-1,1.5649776E-1,-1.3996647E-1,1.3705315E-1,-5.5820294E-2,3.5601977E-1,-6.0452905E-2,9.989663E-2,-1.9984713E-1,4.9815267E-2,-2.098004E-1,7.04809E-2,-2.4862885E-1,2.8026814E-2,3.6806235E-1,-3.3135715E-1,-2.0438628E-1,2.52945E-1,-1.23198695E-1,3.056631E-1,-1.4463954E-1,3.6264816E-1,1.3725333E-1,2.1431665E-1,9.309617E-2,4.662972E-2,-3.8459092E-1,1.1193337E-1,-4.1872954E-1,-7.287414E-2,9.694895E-2,2.274375E-1,-2.9238382E-1,5.019035E-1,-2.1685816E-1,3.4005618E-1,-4.3041795E-2,9.838534E-2,-2.8981137E-1,2.8755844E-1,1.05119094E-1,2.0299809E-1,-2.0802136E-1,5.4212725E-1,-3.343927E-2,-2.978423E-1,6.623986E-2,1.3042985E-1,-2.8359208E-1,-1.8173969E-1,3.3459026E-1,-2.7030224E-1,1.6959951E-3,-8.965956E-2,-3.2660183E-1,-5.6454632E-2,-3.450016E-1],"categories":[],"categories_nodes":[],"categories_segments":[],"categories_sizes":[],"default_left":[0,0,0,0,0,0,0,0,0,0,0,0,0,0,0,0,0,0,0,0,0,0,0,0,0,0,0,0,0,0,0,0,0,0,0,0,0,0,0,0,0,0,0,0,0,0,0,0,0,0,0,0,0,0,0,0,0,0,0,0,0,0,0,0,0,0,0,0,0,0,0,0,0,0,0,0,0,0,0,0,0,0,0,0,0,0,0,0,0,0,0,0,0,0,0,0,0,0,0,0,0,0,0,0,0,0,0,0,0,0,0,0,0,0,0,0,0,0,0,0,0,0,0,0,0,0,0,0,0,0,0,0,0,0,0,0,0,0,0,0,0,0,0,0,0,0,0,0,0,0,0,0,0,0,0,0,0],"id":4,"left_children":[1,3,5,7,9,11,13,15,17,19,21,23,25,27,29,31,33,35,37,39,41,-1,43,45,47,49,51,53,55,-1,-1,57,59,61,63,65,67,-1,69,71,73,75,77,79,-1,81,83,85,-1,-1,-1,87,89,91,-1,-1,93,95,97,99,101,103,105,107,109,111,113,115,117,119,121,123,125,127,129,131,133,135,137,-1,139,141,143,-1,145,147,149,151,-1,-1,-1,153,-1,-1,155,-1,-1,-1,-1,-1,-1,-1,-1,-1,-1,-1,-1,-1,-1,-1,-1,-1,-1,-1,-1,-1,-1,-1,-1,-1,-1,-1,-1,-1,-1,-1,-1,-1,-1,-1,-1,-1,-1,-1,-1,-1,-1,-1,-1,-1,-1,-1,-1,-1,-1,-1,-1,-1,-1,-1,-1,-1,-1,-1,-1,-1,-1],"loss_changes":[1.595989E2,5.090197E1,8.923172E0,8.28847E1,1.9888863E1,4.9053917E0,1.6198044E0,3.2309258E1,3.351223E1,1.0686844E1,2.6784744E0,3.9933815E0,3.6997805E0,8.627167E-1,1.3717362E0,1.1235651E1,1.1875408E1,1.7938896E1,6.008301E0,8.288437E0,1.111681E1,0E0,1.0613823E0,6.5624747E0,3.6602325E0,2.2665694E0,2.9397318E0,3.641984E0,1.6193314E0,0E0,0E0,1.0135338E1,1.416898E1,8.841225E0,1.0603807E1,6.9301195E0,1.5038101E1,0E0,8.8302517E-1,8.623955E0,9.083452E0,6.651044E0,5.794809E0,2.7706618E0,0E0,5.8237925E0,5.9474773E0,3.1815414E0,0E0,0E0,0E0,3.1293385E0,1.4691162E0,2.2031584E0,0E0,0E0,5.990524E-1,1.1057117E1,1.245684E1,7.774251E0,7.3284945E0,7.8872747E0,1.0583548E1,1.0529679E1,8.854904E0,4.875927E0,3.3403587E0,6.0184174E0,5.006301E0,3.2189674E0,1.8123913E-1,7.0827713E0,7.42513E0,7.323881E0,9.116538E0,4.8072815E0,6.0653644E0,3.855689E0,6.8939466E0,0E0,1.1008501E-1,2.68211E0,4.3549943E0,0E0,3.2957382E0,3.665741E0,5.7129917E0,1.0612015E0,0E0,0E0,0E0,8.3209896E-1,0E0,0E0,5.756302E-1,0E0,0E0,0E0,0E0,0E0,0E0,0E0,0E0,0E0,0E0,0E0,0E0,0E0,0E0,0E0,0E0,0E0,0E0,0E0,0E0,0E0,0E0,0E0,0E0,0E0,0E0,0E0,0E0,0E0,0E0,0E0,0E0,0E0,0E0,0E0,0E0,0E0,0E0,0E0,0E0,0E0,0E0,0E0,0E0,0E0,0E0,0E0,0E0,0E0,0E0,0E0,0E0,0E0,0E0,0E0,0E0,0E0,0E0,0E0,0E0,0E0,0E0],"parents":[2147483647,0,0,1,1,2,2,3,3,4,4,5,5,6,6,7,7,8,8,9,9,10,10,11,11,12,12,13,13,14,14,15,15,16,16,17,17,18,18,19,19,20,20,22,22,23,23,24,24,25,25,26,26,27,27,28,28,31,31,32,32,33,33,34,34,35,35,36,36,38,38,39,39,40,40,41,41,42,42,43,43,45,45,46,46,47,47,51,51,52,52,53,53,56,56,57,57,58,58,59,59,60,60,61,61,62,62,63,63,64,64,65,65,66,66,67,67,68,68,69,69,70,70,71,71,72,72,73,73,74,74,75,75,76,76,77,77,78,78,80,80,81,81,82,82,84,84,85,85,86,86,87,87,91,91,94,94],"right_children":[2,4,6,8,10,12,14,16,18,20,22,24,26,28,30,32,34,36,38,40,42,-1,44,46,48,50,52,54,56,-1,-1,58,60,62,64,66,68,-1,70,72,74,76,78,80,-1,82,84,86,-1,-1,-1,88,90,92,-1,-1,94,96,98,100,102,104,106,108,110,112,114,116,118,120,122,124,126,128,130,132,134,136,138,-1,140,142,144,-1,146,148,150,152,-1,-1,-1,154,-1,-1,156,-1,-1,-1,-1,-1,-1,-1,-1,-1,-1,-1,-1,-1,-1,-1,-1,-1,-1,-1,-1,-1,-1,-1,-1,-1,-1,-1,-1,-1,-1,-1,-1,-1,-1,-1,-1,-1,-1,-1,-1,-1,-1,-1,-1,-1,-1,-1,-1,-1,-1,-1,-1,-1,-1,-1,-1,-1,-1,-1,-1,-1,-1],"split_conditions":[1.1838748E1,7.074963E0,1.3599128E1,1E0,1.7382708E0,9.594241E0,6.96054E-2,7.0121155E0,7.148346E0,1.07518635E1,5.9738097E0,-1.5009723E-2,-2.1456933E-2,-2.234163E-2,2.6966106E-2,1.9459101E0,6.1420374E0,4.5325994E0,1.7382708E0,6.898493E-3,8.50086E0,-8.535735E-2,7.385231E0,-5.934187E-3,4.6081156E-2,1.1729224E-2,1.8362356E-2,3.19479E-2,-3.4922346E-2,-2.0861664E-1,1.3043256E-1,8.477645E-3,4.581906E-3,1.9804187E-2,-2.033121E-2,5.043425E0,1.7895905E0,-2.3823573E-1,7.5104303E0,1.8701525E-2,-1.4541305E-2,3.7495084E-2,-2.7915087E-2,1.0176432E0,3.323139E-1,2.1891318E-2,-1.8525891E-2,2.5150012E-2,1.7719804E-1,6.1282236E-2,-3.3969048E-1,1.4967337E-2,-6.922143E-3,4.1939594E-2,1.6201575E-1,-2.566661E-2,-2.2122651E-2,-1.4383463E-2,6.931472E-1,-2.7279446E-2,1.4063254E-2,-4.8350856E-2,-2.4137083E-3,9.721186E0,-1.8907635E-2,3.5553482E0,1.4063148E-2,2.3623042E0,1.3834507E1,4.564348E0,5.8105323E-3,1.1542115E-2,1.07710855E-2,5.7805054E-2,8.109225E0,5.293305E0,4.5200497E-2,-3.227976E-3,2.1024883E-2,-1.1033455E-1,5.7930136E0,-1.5001828E-2,1.9798003E-2,2.8879818E-1,6.5626698E-3,-3.9730992E-2,3.9699733E-2,8.477645E-3,2.50698E-1,3.3288732E-1,-3.7452847E-2,1.4036642E1,7.1234055E-2,-6.748089E-2,-4.3146137E-2,2.4956137E-1,9.1982625E-2,-4.07171E-1,4.953657E-2,-5.5484813E-1,-1.2919684E-1,1.5649776E-1,-1.3996647E-1,1.3705315E-1,-5.5820294E-2,3.5601977E-1,-6.0452905E-2,9.989663E-2,-1.9984713E-1,4.9815267E-2,-2.098004E-1,7.04809E-2,-2.4862885E-1,2.8026814E-2,3.6806235E-1,-3.3135715E-1,-2.0438628E-1,2.52945E-1,-1.23198695E-1,3.056631E-1,-1.4463954E-1,3.6264816E-1,1.3725333E-1,2.1431665E-1,9.309617E-2,4.662972E-2,-3.8459092E-1,1.1193337E-1,-4.1872954E-1,-7.287414E-2,9.694895E-2,2.274375E-1,-2.9238382E-1,5.019035E-1,-2.1685816E-1,3.4005618E-1,-4.3041795E-2,9.838534E-2,-2.8981137E-1,2.8755844E-1,1.05119094E-1,2.0299809E-1,-2.0802136E-1,5.4212725E-1,-3.343927E-2,-2.978423E-1,6.623986E-2,1.3042985E-1,-2.8359208E-1,-1.8173969E-1,3.3459026E-1,-2.7030224E-1,1.6959951E-3,-8.965956E-2,-3.2660183E-1,-5.6454632E-2,-3.450016E-1],"split_indices":[64,65,64,73,69,65,24,64,64,64,64,1,28,52,18,68,65,64,69,41,65,0,65,6,52,21,13,15,8,0,0,8,32,1,35,65,71,0,64,2,25,9,22,70,0,12,0,6,0,0,0,44,2,4,0,0,21,50,64,27,0,59,2,64,18,64,0,69,72,66,6,16,30,47,65,66,9,51,54,0,66,18,45,0,61,43,20,8,0,0,0,64,0,0,55,0,0,0,0,0,0,0,0,0,0,0,0,0,0,0,0,0,0,0,0,0,0,0,0,0,0,0,0,0,0,0,0,0,0,0,0,0,0,0,0,0,0,0,0,0,0,0,0,0,0,0,0,0,0,0,0,0,0,0,0,0,0],"split_type":[0,0,0,0,0,0,0,0,0,0,0,0,0,0,0,0,0,0,0,0,0,0,0,0,0,0,0,0,0,0,0,0,0,0,0,0,0,0,0,0,0,0,0,0,0,0,0,0,0,0,0,0,0,0,0,0,0,0,0,0,0,0,0,0,0,0,0,0,0,0,0,0,0,0,0,0,0,0,0,0,0,0,0,0,0,0,0,0,0,0,0,0,0,0,0,0,0,0,0,0,0,0,0,0,0,0,0,0,0,0,0,0,0,0,0,0,0,0,0,0,0,0,0,0,0,0,0,0,0,0,0,0,0,0,0,0,0,0,0,0,0,0,0,0,0,0,0,0,0,0,0,0,0,0,0,0,0],"sum_hessian":[1.9521196E3,1.731334E3,2.2078574E2,1.134018E3,5.97316E2,1.2030632E2,1.0047942E2,9.283523E2,2.0566571E2,5.536742E2,4.3641754E1,1.06009926E2,1.4296394E1,9.81288E1,2.3506281E0,6.3016077E2,2.9819153E2,1.8972159E2,1.5944113E1,5.0371307E2,4.996111E1,1.2447622E0,4.239699E1,2.7782784E1,7.822714E1,4.425742E0,9.870652E0,1.753983E1,8.058897E1,1.0968162E0,1.2538121E0,5.812237E2,4.893705E1,1.5775444E2,1.4043707E2,2.5477385E1,1.642442E2,1.4868937E0,1.4457219E1,2.1065558E2,2.930575E2,2.2669325E1,2.7291784E1,8.934796E0,3.3462196E1,9.166326E0,1.8616457E1,7.704744E1,1.1796991E0,1.4746029E0,2.9511395E0,5.7823424E0,4.08831E0,1.6187473E1,1.3523551E0,1.6942387E0,7.889473E1,2.7022287E2,3.1100085E2,1.793548E1,3.100157E1,1.3673947E2,2.1014973E1,4.6067707E1,9.436937E1,1.5706347E1,9.771037E0,1.5330273E2,1.0941477E1,4.007428E0,1.0449791E1,1.8379843E2,2.6857143E1,1.7779167E2,1.1526584E2,2.0181826E1,2.4875004E0,1.0769215E1,1.652257E1,1.8087052E0,7.126091E0,5.262896E0,3.9034297E0,1.2132031E0,1.7403254E1,6.741947E1,9.627973E0,4.511417E0,1.2709255E0,3.0700357E0,1.0182738E0,1.4936808E1,1.2506665E0,1.2822223E0,7.76125E1,4.8762928E1,2.2145995E2,4.479158E0,3.065217E2,5.16079E0,1.2774691E1,2.0356535E1,1.0645034E1,2.1866407E1,1.1487306E2,1.1884274E1,9.1307E0,3.1437397E1,1.463031E1,1.34198E1,8.094957E1,7.322596E0,8.383751E0,5.274891E0,4.4961457E0,8.548838E1,6.781435E1,5.799585E0,5.141892E0,2.2789056E0,1.7285225E0,8.344441E0,2.105349E0,1.0706466E2,7.673378E1,2.3647959E1,3.209186E0,1.7637936E2,1.4122999E0,6.771283E1,4.755301E1,1.0174754E0,1.916435E1,1.3460634E0,1.141437E0,7.820955E0,2.9482598E0,1.1324016E1,5.198554E0,5.077133E0,2.0489578E0,1.0811019E0,4.181794E0,2.201009E0,1.7024206E0,1.5182721E1,2.2205338E0,1.4388163E0,6.598065E1,8.1502695E0,1.477703E0,2.4782789E0,2.0331378E0,2.5223384E0,1.241447E1,1.0613612E0,7.655115E1],"tree_param":{"num_deleted":"0","num_feature":"75","num_nodes":"157","size_leaf_vector":"1"}},{"base_weights":[-1.01664495E-2,6.807444E-2,-7.025135E-1,-9.827119E-3,2.8622824E-1,-5.0493586E-1,-9.519847E-1,7.227206E-2,-4.5172235E-1,2.3836364E-1,1.0195112E0,-8.832878E-1,-3.7921667E-1,-9.7394556E-1,-1.306626E-1,1.3602564E-1,-3.0103713E-1,-5.6447136E-1,9.1770124E-1,5.245118E-1,1.6087972E-1,5.050477E-2,3.141073E-1,-1.0484867E0,-1.2105269E-1,-1.6632949E-1,-6.212406E-1,-6.496322E-1,-1.0391586E0,1.15182E-1,-1.9408204E-1,5.353101E-1,9.868147E-2,1.9676761E-1,-3.8975096E-1,-6.8186337E-1,1.5057918E-1,-8.193059E-2,1.0296112E0,1.0207188E0,3.6199617E-1,3.6265677E-1,4.3025788E-2,-2.3078412E-1,-3.369977E-1,7.0708466E-1,-2.3276977E-1,-6.07662E-1,2.1793586E-1,-7.573489E-1,2.5687677E-1,-7.883245E-1,1.258706E-1,-2.1047875E-2,-1.0638978E0,2.1404752E-1,9.1113824E-1,4.02782E-1,5.0561626E-2,3.9281577E-1,-8.459501E-1,-4.4252184E-1,3.639001E-1,-7.691471E-1,3.1751728E-1,-1.1329481E-1,6.3488394E-1,6.460013E-2,3.2419232E-1,-1.6506687E-1,1.134774E0,4.650856E-1,-7.924485E-1,-9.9340737E-1,4.092829E-1,-2.7043122E-1,2.7315196E-1,-1.8560505E-1,8.200253E-2,1.636486E-2,2.9966825E-1,-8.830365E-1,-2.5643487E-2,7.475984E-1,-1.5475403E-1,1.9703656E-1,-8.299745E-1,-2.2264752E-1,7.973213E-1,-9.010111E-1,5.7431374E-2,-4.0414155E-2,-1.0785716E0,2.766573E-1,-2.639047E-2,6.677383E-2,3.3016524E-1,1.6529125E-1,-2.626472E-2,3.7116595E-2,-4.8827644E-2,-3.8923122E-2,2.4179809E-1,-2.3015019E-2,-3.253777E-1,-1.0674822E-1,-2.9294318E-1,-8.719608E-2,3.8291937E-1,-8.0399014E-2,-2.7247536E-1,2.666431E-1,-1.1970437E-1,1.2624942E-1,-2.756887E-1,5.3895354E-1,-6.880015E-2,2.0161858E-2,3.836341E-1,2.734311E-1,7.631335E-2,-5.1149905E-1,1.1715475E-1,1.5315922E-1,-6.3176835E-1,-1.7456664E-1,1.4096728E-1,-6.261947E-2,-4.5059702E-1,9.405739E-2,-3.4340143E-1,-3.0402616E-1,-3.2897722E-2,-1.4825578E-1,2.7002305E-1,3.254981E-1,-1.5501396E-1,1.2335537E-1,-1.8359432E-1,6.784844E-2,-2.6240718E-1,-2.4821177E-2,4.1950372E-1,-7.004462E-2,-3.0837193E-1,-4.1584067E-2,-3.280423E-1],"categories":[],"categories_nodes":[],"categories_segments":[],"categories_sizes":[],"default_left":[0,0,0,0,0,0,0,0,0,0,0,0,0,0,0,0,0,0,0,0,0,0,0,0,0,0,0,0,0,0,0,0,0,0,0,0,0,0,0,0,0,0,0,0,0,0,0,0,0,0,0,0,0,0,0,0,0,0,0,0,0,0,0,0,0,0,0,0,0,0,0,0,0,0,0,0,0,0,0,0,0,0,0,0,0,0,0,0,0,0,0,0,0,0,0,0,0,0,0,0,0,0,0,0,0,0,0,0,0,0,0,0,0,0,0,0,0,0,0,0,0,0,0,0,0,0,0,0,0,0,0,0,0,0,0,0,0,0,0,0,0,0,0,0,0,0,0],"id":5,"left_children":[1,3,5,7,9,11,13,15,17,19,21,23,25,27,29,31,33,35,37,39,41,-1,-1,43,45,47,49,51,53,-1,-1,55,57,59,61,63,65,-1,67,69,71,73,75,77,-1,79,-1,81,83,85,87,89,-1,-1,91,93,95,97,99,101,103,105,107,109,111,113,115,-1,-1,-1,117,119,121,123,125,127,129,-1,-1,-1,-1,131,133,135,137,-1,139,-1,141,143,-1,-1,145,-1,-1,-1,-1,-1,-1,-1,-1,-1,-1,-1,-1,-1,-1,-1,-1,-1,-1,-1,-1,-1,-1,-1,-1,-1,-1,-1,-1,-1,-1,-1,-1,-1,-1,-1,-1,-1,-1,-1,-1,-1,-1,-1,-1,-1,-1,-1,-1,-1,-1,-1,-1,-1,-1],"loss_changes":[9.968284E1,2.8102688E1,8.728668E0,4.4269882E1,1.5028702E1,4.725794E0,1.3417892E0,2.4534945E1,3.0037304E1,9.000689E0,4.4094658E-1,3.119707E0,4.10157E0,9.993439E-1,1.1187425E0,1.3064842E1,6.720191E0,1.4982208E1,2.27005E0,6.635809E0,7.686493E0,0E0,0E0,1.0295429E0,3.6523042E0,7.7274E0,4.7155027E0,2.6918569E0,1.465538E0,0E0,0E0,8.862402E0,1.1769922E1,5.119567E0,5.252327E0,1.3541901E1,3.3711867E0,0E0,3.428812E-1,4.365963E0,8.340803E0,7.9489594E0,1.4904627E1,7.6054084E-1,0E0,5.2635396E-1,0E0,3.360475E0,4.986761E0,3.9346352E0,3.7357E0,1.7668991E0,0E0,0E0,7.079315E-1,9.010471E0,4.2239532E0,8.036104E0,1.0894587E1,4.5080814E0,6.553614E-1,5.2116184E0,5.7022276E0,9.5505905E0,5.6567707E0,7.9433007E0,9.704779E0,0E0,0E0,0E0,2.9573383E0,5.6110945E0,6.9931707E0,8.197548E0,7.243778E0,6.338568E0,7.1737757E0,0E0,0E0,0E0,0E0,1.3307257E0,3.8320718E0,4.9813085E0,4.2140384E0,0E0,1.7011662E0,0E0,2.3694243E0,8.7193775E-1,0E0,0E0,7.0939636E-1,0E0,0E0,0E0,0E0,0E0,0E0,0E0,0E0,0E0,0E0,0E0,0E0,0E0,0E0,0E0,0E0,0E0,0E0,0E0,0E0,0E0,0E0,0E0,0E0,0E0,0E0,0E0,0E0,0E0,0E0,0E0,0E0,0E0,0E0,0E0,0E0,0E0,0E0,0E0,0E0,0E0,0E0,0E0,0E0,0E0,0E0,0E0,0E0,0E0,0E0,0E0,0E0,0E0,0E0],"parents":[2147483647,0,0,1,1,2,2,3,3,4,4,5,5,6,6,7,7,8,8,9,9,10,10,11,11,12,12,13,13,14,14,15,15,16,16,17,17,18,18,19,19,20,20,23,23,24,24,25,25,26,26,27,27,28,28,31,31,32,32,33,33,34,34,35,35,36,36,38,38,39,39,40,40,41,41,42,42,43,43,45,45,47,47,48,48,49,49,50,50,51,51,54,54,55,55,56,56,57,57,58,58,59,59,60,60,61,61,62,62,63,63,64,64,65,65,66,66,70,70,71,71,72,72,73,73,74,74,75,75,76,76,81,81,82,82,83,83,84,84,86,86,88,88,89,89,92,92],"right_children":[2,4,6,8,10,12,14,16,18,20,22,24,26,28,30,32,34,36,38,40,42,-1,-1,44,46,48,50,52,54,-1,-1,56,58,60,62,64,66,-1,68,70,72,74,76,78,-1,80,-1,82,84,86,88,90,-1,-1,92,94,96,98,100,102,104,106,108,110,112,114,116,-1,-1,-1,118,120,122,124,126,128,130,-1,-1,-1,-1,132,134,136,138,-1,140,-1,142,144,-1,-1,146,-1,-1,-1,-1,-1,-1,-1,-1,-1,-1,-1,-1,-1,-1,-1,-1,-1,-1,-1,-1,-1,-1,-1,-1,-1,-1,-1,-1,-1,-1,-1,-1,-1,-1,-1,-1,-1,-1,-1,-1,-1,-1,-1,-1,-1,-1,-1,-1,-1,-1,-1,-1,-1,-1],"split_conditions":[1.1838748E1,7.4471684E0,1.3599128E1,1E0,1.7382708E0,-1.568957E-2,6.96054E-2,9.355739E0,7.5104303E0,5.288267E0,7.4999766E0,5.208043E-2,7.873343E-3,-2.234163E-2,2.15036E-2,-4.8522586E-3,4.317488E0,6.931472E-1,2.5952547E0,-4.68756E-3,7.978654E0,5.050477E-2,3.141073E-1,-2.4031287E-2,1.9924894E-2,9.710009E-3,3.518134E-2,3.19479E-2,-3.4922346E-2,1.15182E-1,-1.9408204E-1,2.0173822E-2,-8.220236E-3,9.371979E-3,7.1862034E-2,1.8188163E0,5.8777356E0,-8.193059E-2,2.3025851E0,-1.8583994E-2,1.3233608E-2,-1.6598923E-2,8.418919E0,-2.1152427E-2,-3.369977E-1,2.547081E-2,-2.3276977E-1,-2.5410126E-3,-2.3542824E-3,-1.7533358E-2,-2.9817324E-2,4.1939594E-2,1.258706E-1,-2.1047875E-2,-4.2452488E-2,-1.2471944E-2,-1.8624144E-2,1.7494682E-2,4.4953246E-2,-4.8322126E-4,-4.8007173E-3,1.6772853E-2,-1.0614137E-3,2.0794415E0,1.3834507E1,5.170484E0,3.4165668E0,6.460013E-2,3.2419232E-1,-1.6506687E-1,-4.3679655E-2,-1.360525E-2,3.0781182E-3,7.354875E-3,-2.2944639E-2,4.947011E-2,5.93122E-2,-1.8560505E-1,8.200253E-2,1.636486E-2,2.9966825E-1,9.762155E0,1.0029241E-2,3.6927275E-2,8.732896E-4,1.9703656E-1,-1.3717297E-2,-2.2264752E-1,2.8640326E-2,-2.4407303E-2,5.7431374E-2,-4.0414155E-2,-2.2122651E-2,2.766573E-1,-2.639047E-2,6.677383E-2,3.3016524E-1,1.6529125E-1,-2.626472E-2,3.7116595E-2,-4.8827644E-2,-3.8923122E-2,2.4179809E-1,-2.3015019E-2,-3.253777E-1,-1.0674822E-1,-2.9294318E-1,-8.719608E-2,3.8291937E-1,-8.0399014E-2,-2.7247536E-1,2.666431E-1,-1.1970437E-1,1.2624942E-1,-2.756887E-1,5.3895354E-1,-6.880015E-2,2.0161858E-2,3.836341E-1,2.734311E-1,7.631335E-2,-5.1149905E-1,1.1715475E-1,1.5315922E-1,-6.3176835E-1,-1.7456664E-1,1.4096728E-1,-6.261947E-2,-4.5059702E-1,9.405739E-2,-3.4340143E-1,-3.0402616E-1,-3.2897722E-2,-1.4825578E-1,2.7002305E-1,3.254981E-1,-1.5501396E-1,1.2335537E-1,-1.8359432E-1,6.784844E-2,-2.6240718E-1,-2.4821177E-2,4.1950372E-1,-7.004462E-2,-3.0837193E-1,-4.1584067E-2,-3.280423E-1],"split_indices":[64,65,64,73,69,30,24,64,64,66,65,60,18,52,52,29,65,68,69,18,64,0,0,24,21,7,30,15,8,0,0,11,0,37,60,71,72,0,67,56,35,29,65,6,0,57,0,35,6,0,39,4,0,0,3,49,55,49,60,55,51,47,26,66,72,64,69,0,0,0,63,37,45,24,8,5,8,0,0,0,0,65,44,57,15,0,30,0,8,15,0,0,21,0,0,0,0,0,0,0,0,0,0,0,0,0,0,0,0,0,0,0,0,0,0,0,0,0,0,0,0,0,0,0,0,0,0,0,0,0,0,0,0,0,0,0,0,0,0,0,0,0,0,0,0,0,0],"split_type":[0,0,0,0,0,0,0,0,0,0,0,0,0,0,0,0,0,0,0,0,0,0,0,0,0,0,0,0,0,0,0,0,0,0,0,0,0,0,0,0,0,0,0,0,0,0,0,0,0,0,0,0,0,0,0,0,0,0,0,0,0,0,0,0,0,0,0,0,0,0,0,0,0,0,0,0,0,0,0,0,0,0,0,0,0,0,0,0,0,0,0,0,0,0,0,0,0,0,0,0,0,0,0,0,0,0,0,0,0,0,0,0,0,0,0,0,0,0,0,0,0,0,0,0,0,0,0,0,0,0,0,0,0,0,0,0,0,0,0,0,0,0,0,0,0,0,0],"sum_hessian":[1.8383075E3,1.6524668E3,1.858406E2,1.218354E3,4.341128E2,1.05394035E2,8.044657E1,1.0281683E3,1.9018568E2,4.0875653E2,2.5356268E1,2.4783178E1,8.0610855E1,7.8170586E1,2.275985E0,8.7873413E2,1.494342E2,1.7626134E2,1.3924354E1,8.586984E1,3.228867E2,1.0168612E0,2.4339407E1,2.0060034E1,4.723145E0,4.3784615E1,3.682624E1,1.49221945E1,6.3248394E1,1.2682148E0,1.0077702E0,7.401628E1,8.0471783E2,2.2418434E1,1.2701577E2,1.5144463E2,2.481671E1,1.0724406E0,1.2851913E1,1.9882402E1,6.598744E1,1.18288475E2,2.0459822E2,2.0244367E0,1.8035597E1,2.050391E0,2.6727538E0,2.0108475E1,2.3676142E1,3.200326E1,4.8229795E0,1.3441338E1,1.4808569E0,1.6700757E0,6.1578316E1,4.0751198E1,3.3265087E1,1.0893247E2,6.957854E2,1.9395111E1,3.0233243E0,1.1908989E2,7.9258795E0,1.3949208E2,1.1952551E1,1.6560028E1,8.256682E0,1.0657411E0,1.1786172E1,1.0869585E0,1.8795443E1,6.112614E1,4.861298E0,3.2569938E0,1.1503149E2,8.6542595E1,1.18055626E2,1.0156813E0,1.0087554E0,1.0003579E0,1.0500332E0,1.3299021E1,6.809454E0,9.363249E0,1.4312893E1,1.1703887E0,3.0832872E1,1.5621116E0,3.2608678E0,1.2126945E1,1.3143935E0,1.1156031E0,6.0462715E1,1.1569789E1,2.9181408E1,7.6458244E0,2.561926E1,8.355626E1,2.537621E1,5.184112E2,1.773742E2,8.866872E0,1.0528238E1,1.0287498E0,1.9945744E0,1.0388864E2,1.5201243E1,5.0120826E0,2.913797E0,3.0942413E1,1.0854966E2,6.5164957E0,5.4360557E0,1.0245393E1,6.314635E0,3.0620687E0,5.194614E0,2.4083328E0,1.638711E1,1.853566E1,4.259048E1,2.4951937E0,2.3661044E0,1.6149207E0,1.6420729E0,6.1329837E0,1.088985E2,8.352745E1,3.0151443E0,1.1554436E2,2.5112648E0,1.1114792E1,2.1842287E0,4.830642E0,1.9788119E0,7.50286E0,1.8603883E0,6.4410725E0,7.8718204E0,1.0875934E0,2.974528E1,1.6732E0,1.5876677E0,2.3906984E0,9.736246E0,1.1044247E0,5.9358288E1],"tree_param":{"num_deleted":"0","num_feature":"75","num_nodes":"147","size_leaf_vector":"1"}},{"base_weights":[-1.0116474E-2,5.0205223E-2,-6.0887545E-1,-3.0506069E-2,1.7965198E-1,-4.2519733E-1,-8.9501923E-1,4.825066E-2,-4.8366213E-1,1.4099158E-1,8.880705E-1,-7.9912716E-1,-3.1091174E-1,-9.222288E-1,-7.153438E-2,1.3769257E-1,-1.17177755E-1,-6.383912E-1,3.006273E-1,4.1084528E-1,8.8556044E-2,-6.9748014E-2,9.4067544E-1,6.425982E-2,-8.973275E-1,7.1731347E-1,-3.6742815E-1,-1.2226553E-1,-9.487676E-1,4.8944507E-2,-8.051404E-2,6.957665E-2,3.9763305E-1,-1.5466592E-1,7.895455E-1,3.0627313E-1,-7.3469126E-1,1.1751262E0,-1.8952346E-1,2.32373E-1,9.894383E-1,7.4489824E-2,3.4227112E-1,6.539261E-1,3.140001E-1,-1.0078092E0,7.9258844E-2,-1.253686E-1,3.8931903E-1,-4.4645935E-1,1.9454262E-1,-1.7314285E-1,1.1896802E-1,-1.0014969E0,-4.7075918E-1,-1.222066E-1,2.3160551E-1,5.195714E-1,-1.7828773E-1,-4.653184E-1,-5.319167E-2,1.2900674E0,5.5159617E-2,-1.0900946E-1,6.975174E-1,-8.638218E-1,-2.2876126E-1,1.3991346E0,-8.8272914E-2,-6.555476E-1,7.3639554E-1,-7.0930445E-1,3.6728078E-1,4.733993E-2,1.1533648E0,1.6447425E-1,-8.3327815E-2,1.2005911E0,-1.0266997E-2,-3.1992438E-1,-6.202166E-3,-1.232109E-1,1.6174085E-1,1.908067E-2,-6.100938E-1,5.893448E-1,-3.3536106E-1,-2.7291369E-2,-1.019283E0,-2.7245373E-1,3.4600705E-1,-7.1562886E-2,1.2543526E-1,8.844807E-2,-1.5734728E-1,1.7249589E-1,-3.2748204E-1,-2.5412112E-1,2.1121658E-1,-1.941978E-2,-1.9995022E-1,4.6521965E-2,-6.34166E-2,1.0366364E-1,4.2115647E-1,2.2347337E-1,-2.7093497E-1,1.2364888E-1,-1.506905E-1,2.928546E-1,-5.573965E-2,-1.1477871E-1,-2.782704E-1,-2.2713639E-1,1.3349286E-1,6.351799E-1,2.5847372E-1,-2.6917925E-1,1.7201932E-1,-6.895032E-2,3.336774E-1,-2.9366732E-1,2.0419616E-1,-1.12935E-1,1.7333561E-1,2.6111245E-1,-2.0820571E-1,8.543333E-3,3.742885E-1,8.617953E-2,-1.692588E-2,2.0329697E-1,-4.0570736E-2,9.103805E-2,4.1196704E-1,2.8946206E-1,-1.8261646E-1,1.0438448E-1,-2.430461E-1,1.7665957E-1,-1.9628444E-1,2.3843965E-1,-3.701077E-2,-2.2278997E-1,1.4865565E-1,-3.1139225E-1,-3.1226745E-2,3.7844542E-1,-1.8634044E-1],"categories":[],"categories_nodes":[],"categories_segments":[],"categories_sizes":[],"default_left":[0,0,0,0,0,0,0,0,0,0,0,0,0,0,0,0,0,0,0,0,0,0,0,0,0,0,0,0,0,0,0,0,0,0,0,0,0,0,0,0,0,0,0,0,0,0,0,0,0,0,0,0,0,0,0,0,0,0,0,0,0,0,0,0,0,0,0,0,0,0,0,0,0,0,0,0,0,0,0,0,0,0,0,0,0,0,0,0,0,0,0,0,0,0,0,0,0,0,0,0,0,0,0,0,0,0,0,0,0,0,0,0,0,0,0,0,0,0,0,0,0,0,0,0,0,0,0,0,0,0,0,0,0,0,0,0,0,0,0,0,0,0,0,0,0,0,0,0,0],"id":6,"left_children":[1,3,5,7,9,11,13,15,17,19,21,23,25,27,29,31,33,35,37,39,41,-1,43,-1,45,47,49,51,53,-1,-1,55,57,59,61,63,65,67,69,71,73,75,-1,77,-1,79,81,-1,-1,83,85,-1,-1,87,89,91,93,95,97,99,101,103,105,107,109,111,113,115,-1,117,119,121,123,125,127,129,131,133,135,-1,-1,-1,-1,137,139,141,143,-1,145,-1,147,-1,-1,-1,-1,-1,-1,-1,-1,-1,-1,-1,-1,-1,-1,-1,-1,-1,-1,-1,-1,-1,-1,-1,-1,-1,-1,-1,-1,-1,-1,-1,-1,-1,-1,-1,-1,-1,-1,-1,-1,-1,-1,-1,-1,-1,-1,-1,-1,-1,-1,-1,-1,-1,-1,-1,-1,-1,-1],"loss_changes":[6.3204964E1,1.6616901E1,8.037247E0,3.5005035E1,1.6602213E1,4.001549E0,1.3167534E0,1.2385191E1,1.781461E1,8.175465E0,2.070673E0,2.4454298E0,4.785064E0,1.1504288E0,1.8504974E-1,9.587718E0,1.0112337E1,1.1288078E1,1.0770891E1,9.491846E0,7.126816E0,0E0,2.3363686E-1,0E0,2.3279362E0,3.436561E0,3.3918524E0,9.518299E-1,9.80072E-1,0E0,0E0,1.3437236E1,7.996317E0,8.898584E0,4.2782726E0,2.0186138E0,7.031563E0,3.366726E0,7.659002E0,9.567261E0,3.3255463E0,6.856428E0,0E0,3.9399443E0,0E0,1.0650406E0,9.074576E-1,0E0,0E0,5.004628E0,2.262796E0,0E0,0E0,7.3288727E-1,3.0325336E0,1.2562573E1,1.1351878E1,8.943081E0,1.2640092E1,5.563487E0,7.0999727E0,2.6638222E-1,4.533222E0,1.5731095E0,1.7299812E0,2.3383179E0,8.830567E0,1.2501554E0,0E0,3.9579444E0,2.4488208E0,4.2340336E0,1.0352708E1,3.2196817E0,1.9367886E0,8.348831E0,7.0294557E0,5.0354767E-1,4.0159364E0,0E0,0E0,0E0,0E0,5.1950207E0,2.9562263E0,9.79481E-1,2.0098395E0,0E0,7.4564743E-1,0E0,3.7741814E0,0E0,0E0,0E0,0E0,0E0,0E0,0E0,0E0,0E0,0E0,0E0,0E0,0E0,0E0,0E0,0E0,0E0,0E0,0E0,0E0,0E0,0E0,0E0,0E0,0E0,0E0,0E0,0E0,0E0,0E0,0E0,0E0,0E0,0E0,0E0,0E0,0E0,0E0,0E0,0E0,0E0,0E0,0E0,0E0,0E0,0E0,0E0,0E0,0E0,0E0,0E0,0E0,0E0,0E0,0E0,0E0,0E0,0E0],"parents":[2147483647,0,0,1,1,2,2,3,3,4,4,5,5,6,6,7,7,8,8,9,9,10,10,11,11,12,12,13,13,14,14,15,15,16,16,17,17,18,18,19,19,20,20,22,22,24,24,25,25,26,26,27,27,28,28,31,31,32,32,33,33,34,34,35,35,36,36,37,37,38,38,39,39,40,40,41,41,43,43,45,45,46,46,49,49,50,50,53,53,54,54,55,55,56,56,57,57,58,58,59,59,60,60,61,61,62,62,63,63,64,64,65,65,66,66,67,67,69,69,70,70,71,71,72,72,73,73,74,74,75,75,76,76,77,77,78,78,83,83,84,84,85,85,86,86,88,88,90,90],"right_children":[2,4,6,8,10,12,14,16,18,20,22,24,26,28,30,32,34,36,38,40,42,-1,44,-1,46,48,50,52,54,-1,-1,56,58,60,62,64,66,68,70,72,74,76,-1,78,-1,80,82,-1,-1,84,86,-1,-1,88,90,92,94,96,98,100,102,104,106,108,110,112,114,116,-1,118,120,122,124,126,128,130,132,134,136,-1,-1,-1,-1,138,140,142,144,-1,146,-1,148,-1,-1,-1,-1,-1,-1,-1,-1,-1,-1,-1,-1,-1,-1,-1,-1,-1,-1,-1,-1,-1,-1,-1,-1,-1,-1,-1,-1,-1,-1,-1,-1,-1,-1,-1,-1,-1,-1,-1,-1,-1,-1,-1,-1,-1,-1,-1,-1,-1,-1,-1,-1,-1,-1,-1,-1,-1,-1],"split_conditions":[1.1838748E1,6.906755E0,1.3696944E1,1E0,2.876821E-1,-1.568957E-2,6.96054E-2,6.6567264E0,4.465908E0,-2.3854202E-2,6.188264E0,-3.6409747E-2,-2.3902103E-2,-3.1955205E-2,3.358828E-2,1.9520352E-2,3.1461954E-2,3.5553482E0,1.4172265E1,-2.3117145E-3,2.9855091E-2,-6.9748014E-2,7.4849305E0,6.425982E-2,5.9534412E-2,1.07627185E-2,9.594241E0,-8.550295E-3,4.7265492E-2,4.8944507E-2,-8.051404E-2,-4.8311765E-4,2.6692538E-2,-4.769713E-3,9.250714E0,1.49537595E-2,6.418365E0,4.983607E0,6.902743E0,-1.0849001E-2,-1.0529158E-2,-1.8750299E-2,3.4227112E-1,4.265655E0,3.140001E-1,4.55846E-2,-9.875322E-3,-1.253686E-1,3.8931903E-1,4.983607E0,7.6291002E-3,-1.7314285E-1,1.1896802E-1,-5.9286814E-2,-5.2575646E-3,6.4052286E0,3.7304588E-2,2.1330126E-2,2.2423053E-2,-2.7457435E-2,7.244759E-3,-9.3819415E-3,-3.767726E-4,2.0794415E0,2.7725887E0,4.5325994E0,2.4854116E0,1.1134825E0,-8.8272914E-2,6.6707664E0,1.4437517E1,9.357898E0,-2.8229177E-2,-1.4289312E-2,-4.4643443E-2,1.663307E-2,5.09375E0,8.347586E-3,4.564348E0,-3.1992438E-1,-6.202166E-3,-1.232109E-1,1.6174085E-1,2.0156756E-2,-3.4092978E-2,1.2963541E1,1.8892283E-2,-2.7291369E-2,4.579021E-2,-2.7245373E-1,-1.0520292E-2,-7.1562886E-2,1.2543526E-1,8.844807E-2,-1.5734728E-1,1.7249589E-1,-3.2748204E-1,-2.5412112E-1,2.1121658E-1,-1.941978E-2,-1.9995022E-1,4.6521965E-2,-6.34166E-2,1.0366364E-1,4.2115647E-1,2.2347337E-1,-2.7093497E-1,1.2364888E-1,-1.506905E-1,2.928546E-1,-5.573965E-2,-1.1477871E-1,-2.782704E-1,-2.2713639E-1,1.3349286E-1,6.351799E-1,2.5847372E-1,-2.6917925E-1,1.7201932E-1,-6.895032E-2,3.336774E-1,-2.9366732E-1,2.0419616E-1,-1.12935E-1,1.7333561E-1,2.6111245E-1,-2.0820571E-1,8.543333E-3,3.742885E-1,8.617953E-2,-1.692588E-2,2.0329697E-1,-4.0570736E-2,9.103805E-2,4.1196704E-1,2.8946206E-1,-1.8261646E-1,1.0438448E-1,-2.430461E-1,1.7665957E-1,-1.9628444E-1,2.3843965E-1,-3.701077E-2,-2.2278997E-1,1.4865565E-1,-3.1139225E-1,-3.1226745E-2,3.7844542E-1,-1.8634044E-1],"split_indices":[64,65,64,73,71,30,24,64,69,42,64,40,8,32,8,41,40,64,72,36,63,0,64,0,60,28,65,1,20,0,0,55,47,16,64,3,65,66,64,45,55,63,0,69,0,32,36,0,0,65,32,0,0,61,23,65,0,46,48,63,41,39,16,64,67,64,69,70,0,65,72,65,10,43,46,24,66,9,66,0,0,0,0,16,0,64,56,0,49,0,52,0,0,0,0,0,0,0,0,0,0,0,0,0,0,0,0,0,0,0,0,0,0,0,0,0,0,0,0,0,0,0,0,0,0,0,0,0,0,0,0,0,0,0,0,0,0,0,0,0,0,0,0,0,0,0,0,0,0],"split_type":[0,0,0,0,0,0,0,0,0,0,0,0,0,0,0,0,0,0,0,0,0,0,0,0,0,0,0,0,0,0,0,0,0,0,0,0,0,0,0,0,0,0,0,0,0,0,0,0,0,0,0,0,0,0,0,0,0,0,0,0,0,0,0,0,0,0,0,0,0,0,0,0,0,0,0,0,0,0,0,0,0,0,0,0,0,0,0,0,0,0,0,0,0,0,0,0,0,0,0,0,0,0,0,0,0,0,0,0,0,0,0,0,0,0,0,0,0,0,0,0,0,0,0,0,0,0,0,0,0,0,0,0,0,0,0,0,0,0,0,0,0,0,0,0,0,0,0,0,0],"sum_hessian":[1.7481034E3,1.5889423E3,1.591611E2,9.791791E2,6.0976324E2,9.845071E1,6.0710396E1,8.349599E2,1.442192E2,5.793457E2,3.04175E1,2.1643425E1,7.680728E1,5.865249E1,2.057907E0,5.4205536E2,2.929045E2,1.206105E2,2.3608692E1,9.314583E1,4.861999E2,1.2105854E0,2.9206913E1,1.8077765E0,1.983565E1,3.3925807E0,7.34147E1,2.0633566E0,5.658913E1,1.016822E0,1.041085E0,4.3051025E2,1.1154509E2,2.8207178E2,1.0832737E1,1.0956023E1,1.0965447E2,7.977757E0,1.5630936E1,7.225861E1,2.088721E1,4.8084348E2,5.3564157E0,9.817171E0,1.9389742E1,1.7790977E1,2.044673E0,1.2424808E0,2.1500998E0,6.454337E1,8.871331E0,1.0395418E0,1.0238147E0,4.9980602E1,6.6085277E0,1.9726546E2,2.332448E2,9.213534E1,1.9409754E1,6.8569145E1,2.1350264E2,5.99213E0,4.840607E0,5.6646795E0,5.291344E0,8.679424E1,2.286023E1,6.9638953E0,1.0138617E0,1.0591921E1,5.039015E0,8.521252E0,6.3737366E1,3.2867553E0,1.7600456E1,3.062078E2,1.7463568E2,4.942032E0,4.875139E0,1.671812E1,1.072855E0,1.041727E0,1.0029459E0,1.701606E1,4.7527313E1,5.0194445E0,3.8518865E0,1.0747664E0,4.8905838E1,4.2307987E0,2.3777287E0,1.6277676E2,3.4488693E1,2.1580981E2,1.7434982E1,8.969354E1,2.4417934E0,1.1063792E1,8.345961E0,2.3365833E1,4.520331E1,9.2174934E1,1.21327705E2,1.0782881E0,4.9138417E0,2.9441273E0,1.89648E0,2.4156249E0,3.2490547E0,3.942461E0,1.3488829E0,1.0971466E1,7.582278E1,1.2743068E1,1.0117162E1,1.7231759E0,5.2407193E0,9.076574E0,1.5153462E0,1.5200179E0,3.518997E0,7.3847065E0,1.1365451E0,1.3886577E1,4.985079E1,1.4751078E0,1.8116474E0,1.4615291E0,1.6138927E1,1.9661351E2,1.0959429E2,1.0381738E1,1.6425394E2,1.2425616E0,3.69947E0,1.6212112E0,3.253928E0,1.2599571E1,4.416489E0,1.2512168E0,4.6276096E1,3.8068674E0,1.2125773E0,2.6561372E0,1.1957494E0,4.7795547E1,1.1102885E0,1.0651425E0,1.3125862E0],"tree_param":{"num_deleted":"0","num_feature":"75","num_nodes":"149","size_leaf_vector":"1"}},{"base_weights":[-7.5757443E-3,4.697936E-2,-4.454087E-1,3.6396667E-2,8.260011E-1,-2.9628485E-1,-8.1384957E-1,7.376108E-2,-2.821478E-1,-2.1311907E-1,1.0007914E0,-1.3235104E-1,-5.5733114E-1,-9.0022177E-1,-3.2426754E-1,1.1689127E-2,1.5942688E-1,-5.206489E-1,2.578827E-1,6.992563E-2,-1.876012E-1,1.0997677E0,5.192918E-1,-5.2399147E-2,-7.934788E-1,-6.5142715E-1,3.5267508E-1,4.8511952E-2,-9.495554E-1,4.5692712E-1,-7.9801506E-1,7.58273E-1,-3.002215E-3,5.15058E-1,1.2176824E-1,-9.161329E-2,-6.9516665E-1,9.045524E-1,1.9694518E-3,7.476123E-2,3.452923E-1,2.5742784E-1,-7.956934E-2,-2.1116048E-1,3.7035996E-1,9.343696E-2,-3.0801952E-1,-7.7616173E-1,7.961775E-2,-2.010446E-1,8.002639E-1,-8.05993E-2,1.09089E-1,-2.8448862E-1,-9.883269E-1,1.0001595E0,-1.7274038E-1,-5.529657E-2,-2.6380676E-1,1.0133575E0,-1.5856595E-1,6.032721E-1,-1.8660655E-2,-9.538696E-1,6.748418E-1,2.0811515E-1,-6.327217E-2,-3.0406398E-1,1.2808691E0,-8.486476E-1,1.6930647E-1,9.7397846E-1,3.7140198E-2,-9.543343E-1,4.8254275E-1,-8.645562E-1,-1.164171E-1,-2.896094E-1,7.081299E-1,-2.8378373E-1,-9.3145674E-1,6.098911E-1,-5.0385785E-1,-7.0848085E-2,4.0132827E-1,1.2936756E-1,-2.1122965E-1,-3.786659E-1,-1.0330011E0,4.1280445E-1,5.1916096E-2,-3.906169E-2,3.8537222E-1,-2.774695E-1,1.9389607E-1,-1.7725421E-1,2.4160492E-1,-1.0924247E-1,4.039881E-3,-4.279994E-1,1.0491248E-1,-2.1316229E-1,2.3945294E-1,2.4764477E-3,1.1741825E-1,-1.1728474E-1,3.5692055E-2,1.03473395E-1,-1.4510566E-1,5.019195E-1,4.171596E-2,-2.6244462E-1,9.282589E-2,-2.425114E-1,1.5402281E-1,1.12682305E-1,3.3003908E-1,1.9965736E-2,-3.172021E-1,2.8362823E-1,-4.1140623E-2,-2.879478E-1,-4.7574826E-2,2.706158E-2,-1.5298216E-1,2.348623E-1,-1.7715222E-1,3.2070133E-1,-1.0266211E-1,2.7590802E-1,-1.6008101E-1,-3.016594E-1,-3.611347E-2,2.881261E-1,-5.443641E-2,-2.7789E-1,8.0703884E-2,-2.267682E-1,1.23866685E-1,-3.1555268E-1,-5.651554E-2],"categories":[],"categories_nodes":[],"categories_segments":[],"categories_sizes":[],"default_left":[0,0,0,0,0,0,0,0,0,0,0,0,0,0,0,0,0,0,0,0,0,0,0,0,0,0,0,0,0,0,0,0,0,0,0,0,0,0,0,0,0,0,0,0,0,0,0,0,0,0,0,0,0,0,0,0,0,0,0,0,0,0,0,0,0,0,0,0,0,0,0,0,0,0,0,0,0,0,0,0,0,0,0,0,0,0,0,0,0,0,0,0,0,0,0,0,0,0,0,0,0,0,0,0,0,0,0,0,0,0,0,0,0,0,0,0,0,0,0,0,0,0,0,0,0,0,0,0,0,0,0,0,0,0,0,0,0,0,0,0,0],"id":7,"left_children":[1,3,5,7,9,11,13,15,17,19,21,23,25,27,29,31,33,35,37,-1,-1,39,41,43,45,47,49,51,53,55,57,59,61,63,65,67,69,71,73,-1,-1,-1,-1,75,77,-1,-1,79,81,-1,83,-1,-1,85,87,89,-1,-1,-1,91,93,95,97,99,101,103,105,107,109,111,113,115,-1,117,119,121,123,125,127,129,131,133,135,-1,-1,-1,-1,137,139,-1,-1,-1,-1,-1,-1,-1,-1,-1,-1,-1,-1,-1,-1,-1,-1,-1,-1,-1,-1,-1,-1,-1,-1,-1,-1,-1,-1,-1,-1,-1,-1,-1,-1,-1,-1,-1,-1,-1,-1,-1,-1,-1,-1,-1,-1,-1,-1,-1,-1,-1,-1],"loss_changes":[4.0179207E1,1.230214E1,9.998791E0,1.7598871E1,3.8462849E0,5.6712065E0,1.9546013E0,7.0310817E0,2.0130623E1,8.271518E-1,2.5326157E-1,4.386521E0,4.6372967E0,2.1333656E0,3.8915899E0,8.4259405E0,7.3784466E0,8.024496E0,7.9799232E0,0E0,0E0,2.9914665E-1,1.5151213E0,5.1661124E0,2.630889E0,4.347645E0,3.04159E0,4.1310516E-1,8.1319046E-1,2.950953E0,1.522255E-1,3.627841E0,7.1708694E0,1.3058143E1,8.061527E0,9.832972E0,1.0311836E1,6.205473E-1,1.6801844E1,0E0,0E0,0E0,0E0,3.3503492E0,4.899479E0,0E0,0E0,2.8128223E0,2.7075129E0,0E0,2.6903923E0,0E0,0E0,1.4274457E0,6.900711E-1,7.3789024E-1,0E0,0E0,0E0,3.8064394E0,3.121499E0,5.064951E0,8.17568E0,3.9523864E0,8.818092E0,1.2586173E1,9.663243E0,3.5303047E0,1.7973485E0,2.2479668E0,4.582781E0,5.2360535E-1,0E0,1.3562651E0,7.1082473E0,3.1214333E-1,4.098744E0,2.991972E0,5.7557535E0,3.824215E0,1.6907272E0,1.4270992E0,1.6338828E0,0E0,0E0,0E0,0E0,1.5928056E0,3.8124847E-1,0E0,0E0,0E0,0E0,0E0,0E0,0E0,0E0,0E0,0E0,0E0,0E0,0E0,0E0,0E0,0E0,0E0,0E0,0E0,0E0,0E0,0E0,0E0,0E0,0E0,0E0,0E0,0E0,0E0,0E0,0E0,0E0,0E0,0E0,0E0,0E0,0E0,0E0,0E0,0E0,0E0,0E0,0E0,0E0,0E0,0E0,0E0,0E0,0E0,0E0,0E0,0E0],"parents":[2147483647,0,0,1,1,2,2,3,3,4,4,5,5,6,6,7,7,8,8,9,9,10,10,11,11,12,12,13,13,14,14,15,15,16,16,17,17,18,18,21,21,22,22,23,23,24,24,25,25,26,26,27,27,28,28,29,29,30,30,31,31,32,32,33,33,34,34,35,35,36,36,37,37,38,38,43,43,44,44,47,47,48,48,50,50,53,53,54,54,55,55,59,59,60,60,61,61,62,62,63,63,64,64,65,65,66,66,67,67,68,68,69,69,70,70,71,71,73,73,74,74,75,75,76,76,77,77,78,78,79,79,80,80,81,81,82,82,87,87,88,88],"right_children":[2,4,6,8,10,12,14,16,18,20,22,24,26,28,30,32,34,36,38,-1,-1,40,42,44,46,48,50,52,54,56,58,60,62,64,66,68,70,72,74,-1,-1,-1,-1,76,78,-1,-1,80,82,-1,84,-1,-1,86,88,90,-1,-1,-1,92,94,96,98,100,102,104,106,108,110,112,114,116,-1,118,120,122,124,126,128,130,132,134,136,-1,-1,-1,-1,138,140,-1,-1,-1,-1,-1,-1,-1,-1,-1,-1,-1,-1,-1,-1,-1,-1,-1,-1,-1,-1,-1,-1,-1,-1,-1,-1,-1,-1,-1,-1,-1,-1,-1,-1,-1,-1,-1,-1,-1,-1,-1,-1,-1,-1,-1,-1,-1,-1,-1,-1,-1,-1],"split_conditions":[1.1224617E1,1.7020171E0,1.3599128E1,1E0,6.359574E0,-9.600923E-3,2.7725887E0,2.2376683E-2,6.684612E0,3.392525E-3,5.8104796E-3,2.7218195E-2,4.096165E-2,-3.4623276E-2,-2.0560062E-2,-5.5324234E-2,-1.2471107E-2,5.170484E0,1.7917595E0,6.992563E-2,-1.876012E-1,4.530259E0,1.4580219E1,1.8378977E-2,-4.395638E-2,9.594241E0,8.49465E-3,-4.834067E-2,-1.5761513E-2,2.81534E-2,-4.0105205E-2,1.0986123E0,-3.0424511E-2,-6.696138E-3,6.4925884E-4,6.042633E0,6.5778613E0,6.6567264E0,9.278173E-2,7.476123E-2,3.452923E-1,2.5742784E-1,-7.956934E-2,7.7748396E-3,-1.5122635E-2,9.343696E-2,-3.0801952E-1,4.983607E0,-1.0285011E-2,-2.010446E-1,-1.6286561E-2,-8.05993E-2,1.09089E-1,-1.2988671E-2,-3.2485582E-2,-6.0374984E-3,-1.7274038E-1,-5.529657E-2,-2.6380676E-1,-2.371254E-3,-2.6912633E-2,-9.696374E-3,-1.7245622E-2,-6.035494E-3,-1.7687E-2,-4.2659566E-3,-1.6878324E-3,2.0221531E-2,-6.083071E-4,2.2950568E0,1.7382708E0,8.347586E-3,3.7140198E-2,4.9416423E0,1.3792842E1,2.2040289E-2,3.923609E-2,-3.6469355E-2,5.5217836E-4,-2.8229177E-2,3.7259247E-2,3.3351917E-2,1.01981815E-2,-7.0848085E-2,4.0132827E-1,1.2936756E-1,-2.1122965E-1,9.353589E-3,2.6150694E-2,4.1280445E-1,5.1916096E-2,-3.906169E-2,3.8537222E-1,-2.774695E-1,1.9389607E-1,-1.7725421E-1,2.4160492E-1,-1.0924247E-1,4.039881E-3,-4.279994E-1,1.0491248E-1,-2.1316229E-1,2.3945294E-1,2.4764477E-3,1.1741825E-1,-1.1728474E-1,3.5692055E-2,1.03473395E-1,-1.4510566E-1,5.019195E-1,4.171596E-2,-2.6244462E-1,9.282589E-2,-2.425114E-1,1.5402281E-1,1.12682305E-1,3.3003908E-1,1.9965736E-2,-3.172021E-1,2.8362823E-1,-4.1140623E-2,-2.879478E-1,-4.7574826E-2,2.706158E-2,-1.5298216E-1,2.348623E-1,-1.7715222E-1,3.2070133E-1,-1.0266211E-1,2.7590802E-1,-1.6008101E-1,-3.016594E-1,-3.611347E-2,2.881261E-1,-5.443641E-2,-2.7789E-1,8.0703884E-2,-2.267682E-1,1.23866685E-1,-3.1555268E-1,-5.651554E-2],"split_indices":[64,70,64,73,64,25,67,33,65,5,6,10,8,5,27,27,12,64,66,0,0,69,72,3,23,65,12,63,21,57,59,68,54,20,42,65,64,64,70,0,0,0,0,57,2,0,0,65,37,0,43,0,0,22,52,42,0,0,0,16,46,38,8,2,11,38,32,29,48,71,69,9,0,64,72,1,57,51,34,10,58,57,10,0,0,0,0,9,46,0,0,0,0,0,0,0,0,0,0,0,0,0,0,0,0,0,0,0,0,0,0,0,0,0,0,0,0,0,0,0,0,0,0,0,0,0,0,0,0,0,0,0,0,0,0,0,0,0,0,0,0],"split_type":[0,0,0,0,0,0,0,0,0,0,0,0,0,0,0,0,0,0,0,0,0,0,0,0,0,0,0,0,0,0,0,0,0,0,0,0,0,0,0,0,0,0,0,0,0,0,0,0,0,0,0,0,0,0,0,0,0,0,0,0,0,0,0,0,0,0,0,0,0,0,0,0,0,0,0,0,0,0,0,0,0,0,0,0,0,0,0,0,0,0,0,0,0,0,0,0,0,0,0,0,0,0,0,0,0,0,0,0,0,0,0,0,0,0,0,0,0,0,0,0,0,0,0,0,0,0,0,0,0,0,0,0,0,0,0,0,0,0,0,0,0],"sum_hessian":[1.6802462E3,1.4948738E3,1.8537239E2,1.4758715E3,1.900239E1,1.3324611E2,5.2126278E1,1.3216177E3,1.5425378E2,2.704569E0,1.6297821E1,8.277282E1,5.047329E1,4.359626E1,8.530019E0,7.669996E2,5.546181E2,1.0702344E2,4.7230347E1,1.5074222E0,1.1971469E0,1.24537945E1,3.8440263E0,7.480563E1,7.9671826E0,4.6000877E1,4.472411E0,2.1557496E0,4.144051E1,3.233532E0,5.296487E0,1.3825055E1,7.531745E2,5.1892445E1,5.0272565E2,3.138682E1,7.563662E1,1.2672776E1,3.4557568E1,1.0403181E0,1.1413476E1,2.6191528E0,1.2248735E0,5.474676E1,2.0058872E1,1.3302798E0,6.636903E0,3.924328E1,6.7576013E0,1.2100286E0,3.2623825E0,1.1478345E0,1.0079149E0,2.7420669E0,3.869844E1,2.1396022E0,1.0939296E0,1.0020853E0,4.2944016E0,1.0733491E1,3.0915637E0,1.8017904E1,7.3515656E2,4.603325E0,4.728912E1,3.4268915E2,1.600365E2,2.7853716E1,3.5331037E0,6.424813E1,1.1388484E1,1.1410632E1,1.2621444E0,1.1228298E1,2.3329271E1,5.90409E0,4.8842674E1,6.8389053E0,1.3219966E1,1.00874405E1,2.9155836E1,3.5164833E0,3.2411177E0,1.3055656E0,1.9568169E0,1.003224E0,1.7388428E0,3.2890801E0,3.5409363E1,1.0148028E0,1.1247994E0,2.1573048E0,8.576186E0,1.5073301E0,1.5842335E0,2.32936E0,1.5688544E1,6.1667965E1,6.7348865E2,3.3088243E0,1.2945006E0,3.4765828E0,4.381254E1,1.6442914E2,1.7826001E2,5.678755E1,1.0324894E2,5.8385906E0,2.2015125E1,2.283493E0,1.2496109E0,6.3067642E1,1.1804898E0,2.6135516E0,8.774932E0,2.679325E0,8.731307E0,1.0615207E0,1.0166777E1,1.3053183E1,1.0276089E1,4.8852563E0,1.0188338E0,3.2532185E1,1.6310488E1,1.1474135E0,5.6914916E0,9.826133E0,3.3938332E0,1.2730827E0,8.814358E0,2.6496231E1,2.6596055E0,2.288937E0,1.2275463E0,1.9672974E0,1.2738202E0,2.2580311E0,1.031049E0,3.4396713E1,1.0126473E0],"tree_param":{"num_deleted":"0","num_feature":"75","num_nodes":"141","size_leaf_vector":"1"}},{"base_weights":[-7.0826435E-3,2.1694783E-2,-5.7202834E-1,1.4062527E-2,9.2258453E-1,-4.281123E-1,-9.5178616E-1,-1.6242702E-2,2.1979497E-1,9.9197394E-1,3.9863694E-2,-4.904328E-1,6.1589867E-1,-4.8857946E-3,-9.9876046E-1,1.9154439E-2,-2.4590635E-1,3.57944E-1,-2.3241304E-2,8.554646E-2,3.171571E-1,-3.1466916E-1,-7.997883E-1,-6.623483E-2,3.3772504E-1,-6.547839E-2,-3.0871323E-1,5.3617742E-2,-2.4794811E-1,-2.8240722E-1,9.0927845E-1,4.1284758E-1,-6.747726E-1,3.2575938E-1,-3.2842022E-1,-4.3978268E-1,2.9547775E-1,8.558683E-2,-8.767998E-1,3.5587764E-1,2.6959712E-2,-4.465388E-1,2.5638214E-1,-2.2483268E-1,-9.4269717E-1,-8.374768E-2,4.8469457E-1,9.0301174E-1,2.763567E-1,1.746064E-1,-1.0643628E0,-9.5253175E-1,4.9834862E-1,2.2177435E-1,-7.535693E-1,-5.9029126E-1,3.3992797E-1,-6.003402E-1,1.0177717E0,-9.667228E-3,-9.451268E-1,-7.443559E-2,1.475544E-1,2.6955226E-2,-3.1999186E-2,-1.6630718E-1,3.93995E-2,2.4555616E-1,-3.516348E-2,-4.376223E-2,-2.0155552E-1,5.455317E-2,-3.596053E-1,-2.1372983E-1,2.05366E-1,2.9288855E-1,-7.136098E-2,-9.6324064E-2,1.244997E-1,-4.334724E-1,7.5942144E-2,-5.7597786E-1,1.2604223E-1,3.220971E-2,2.4961646E-1,-4.1304848E-1,1.2246473E-1,-2.4863708E-4,-3.3944726E-1,9.012515E-2,-2.1627584E-1,2.3172206E-1,-1.8854627E-1,-4.218755E-2,-2.1523483E-1,-8.173789E-2,4.5081738E-1,-1.603851E-2,-2.994966E-1],"categories":[],"categories_nodes":[],"categories_segments":[],"categories_sizes":[],"default_left":[0,0,0,0,0,0,0,0,0,0,0,0,0,0,0,0,0,0,0,0,0,0,0,0,0,0,0,0,0,0,0,0,0,0,0,0,0,0,0,0,0,0,0,0,0,0,0,0,0,0,0,0,0,0,0,0,0,0,0,0,0,0,0,0,0,0,0,0,0,0,0,0,0,0,0,0,0,0,0,0,0,0,0,0,0,0,0,0,0,0,0,0,0,0,0,0,0,0,0],"id":8,"left_children":[1,3,5,7,9,11,13,15,17,19,-1,21,23,-1,25,27,29,31,33,-1,-1,35,37,-1,-1,-1,-1,39,41,43,45,47,49,51,53,55,57,-1,59,61,63,65,67,69,71,73,-1,75,77,-1,79,81,83,85,87,89,91,93,95,-1,97,-1,-1,-1,-1,-1,-1,-1,-1,-1,-1,-1,-1,-1,-1,-1,-1,-1,-1,-1,-1,-1,-1,-1,-1,-1,-1,-1,-1,-1,-1,-1,-1,-1,-1,-1,-1,-1,-1],"loss_changes":[2.6501413E1,1.0653581E1,3.9106197E0,9.600728E0,5.814667E-1,4.148155E0,9.0198517E-1,1.0919251E1,6.646187E0,2.4296379E-1,0E0,2.8117294E0,1.8581246E0,0E0,2.4528885E-1,1.07302885E1,7.8198433E0,7.4290752E0,7.838364E0,0E0,0E0,2.998414E0,1.9016848E0,0E0,0E0,0E0,0E0,8.305911E0,1.345789E1,6.427001E0,4.1552286E0,7.8032684E0,3.9224346E0,8.056424E0,9.342243E0,3.907127E0,5.1352415E0,0E0,1.0486488E0,6.984392E0,7.9884367E0,6.051119E0,8.134099E0,5.617937E0,4.159769E0,2.0975206E0,0E0,2.3872757E0,8.050973E0,0E0,3.1247969E0,6.6912208E0,3.9467611E0,5.8882165E0,6.358223E0,3.339346E0,2.891488E0,1.0100496E-1,3.063661E0,0E0,7.655344E-1,0E0,0E0,0E0,0E0,0E0,0E0,0E0,0E0,0E0,0E0,0E0,0E0,0E0,0E0,0E0,0E0,0E0,0E0,0E0,0E0,0E0,0E0,0E0,0E0,0E0,0E0,0E0,0E0,0E0,0E0,0E0,0E0,0E0,0E0,0E0,0E0,0E0,0E0],"parents":[2147483647,0,0,1,1,2,2,3,3,4,4,5,5,6,6,7,7,8,8,9,9,11,11,12,12,14,14,15,15,16,16,17,17,18,18,21,21,22,22,27,27,28,28,29,29,30,30,31,31,32,32,33,33,34,34,35,35,36,36,38,38,39,39,40,40,41,41,42,42,43,43,44,44,45,45,47,47,48,48,50,50,51,51,52,52,53,53,54,54,55,55,56,56,57,57,58,58,60,60],"right_children":[2,4,6,8,10,12,14,16,18,20,-1,22,24,-1,26,28,30,32,34,-1,-1,36,38,-1,-1,-1,-1,40,42,44,46,48,50,52,54,56,58,-1,60,62,64,66,68,70,72,74,-1,76,78,-1,80,82,84,86,88,90,92,94,96,-1,98,-1,-1,-1,-1,-1,-1,-1,-1,-1,-1,-1,-1,-1,-1,-1,-1,-1,-1,-1,-1,-1,-1,-1,-1,-1,-1,-1,-1,-1,-1,-1,-1,-1,-1,-1,-1,-1,-1],"split_conditions":[1.26842985E1,5.3616834E0,-1.1259481E-2,8.213382E0,8.682368E0,2.1140015E-2,-4.247006E-2,9.669599E0,1.3365277E-2,5.472699E0,3.9863694E-2,1.4376603E1,1.5436882E-2,-4.8857946E-3,-2.8147468E-2,1E0,1.3862944E0,5.0945874E-2,7.244759E-3,8.554646E-2,3.171571E-1,6.073556E-3,-5.9286814E-2,-6.623483E-2,3.3772504E-1,-6.547839E-2,-3.0871323E-1,-4.8522586E-3,6.684612E0,6.931472E-1,-4.8318866E-4,-2.635277E-2,-2.5395203E-2,-1.2960396E-2,-1.6558394E-2,4.40324E-2,1.5187285E-2,8.558683E-2,-3.2123417E-2,-2.2189833E-2,4.102847E-2,6.931472E-1,3.465736E0,4.0310953E-2,1.32833645E-2,8.197742E-3,4.8469457E-1,2.3150405E-2,-2.7472313E-2,1.746064E-1,2.5594989E-2,-1.5013568E-2,6.2360596E-3,-2.4225704E-2,-1.5614782E-2,3.8066626E0,5.1527796E-4,-1.8691318E-2,3.8721794E-3,-9.667228E-3,-5.863014E-3,-7.443559E-2,1.475544E-1,2.6955226E-2,-3.1999186E-2,-1.6630718E-1,3.93995E-2,2.4555616E-1,-3.516348E-2,-4.376223E-2,-2.0155552E-1,5.455317E-2,-3.596053E-1,-2.1372983E-1,2.05366E-1,2.9288855E-1,-7.136098E-2,-9.6324064E-2,1.244997E-1,-4.334724E-1,7.5942144E-2,-5.7597786E-1,1.2604223E-1,3.220971E-2,2.4961646E-1,-4.1304848E-1,1.2246473E-1,-2.4863708E-4,-3.3944726E-1,9.012515E-2,-2.1627584E-1,2.3172206E-1,-1.8854627E-1,-4.218755E-2,-2.1523483E-1,-8.173789E-2,4.5081738E-1,-1.603851E-2,-2.994966E-1],"split_indices":[64,69,59,65,65,35,2,64,32,69,0,64,12,0,5,73,68,56,41,0,0,36,61,0,0,0,0,29,65,68,55,53,25,9,36,11,33,0,10,1,60,68,66,11,57,58,0,62,36,0,37,59,8,6,23,65,5,35,3,0,21,0,0,0,0,0,0,0,0,0,0,0,0,0,0,0,0,0,0,0,0,0,0,0,0,0,0,0,0,0,0,0,0,0,0,0,0,0,0],"split_type":[0,0,0,0,0,0,0,0,0,0,0,0,0,0,0,0,0,0,0,0,0,0,0,0,0,0,0,0,0,0,0,0,0,0,0,0,0,0,0,0,0,0,0,0,0,0,0,0,0,0,0,0,0,0,0,0,0,0,0,0,0,0,0,0,0,0,0,0,0,0,0,0,0,0,0,0,0,0,0,0,0,0,0,0,0,0,0,0,0,0,0,0,0,0,0,0,0,0,0],"sum_hessian":[1.628322E3,1.5503132E3,7.8008865E1,1.5382965E3,1.2016701E1,5.8113163E1,1.9895702E1,1.3415951E3,1.9670137E2,1.0810664E1,1.2060367E0,5.5339973E1,2.773187E0,1.0156478E0,1.8880054E1,1.163228E3,1.783671E2,1.2511149E2,7.158988E1,1.3670394E0,9.4436245E0,3.6576065E1,1.876391E1,1.2647161E0,1.5084707E0,1.0117389E0,1.7868317E1,1.0310009E3,1.3222716E2,1.7363617E2,4.7309246E0,1.1936574E2,5.7457514E0,3.3365673E1,3.8224213E1,3.0583908E1,5.9921575E0,1.064256E0,1.7699654E1,8.25593E1,9.484416E2,9.495228E1,3.727488E1,1.609431E2,1.2693063E1,2.3328319E0,2.3980925E0,2.477569E1,9.459004E1,1.2427582E0,4.5029936E0,3.4314432E0,2.993423E1,1.6870323E1,2.1353888E1,2.583909E1,4.7448177E0,2.7501514E0,3.242006E0,1.4348884E0,1.6264767E1,1.5018876E1,6.754043E1,6.451324E2,3.0330914E2,8.005618E1,1.4896099E1,1.4406618E1,2.2868263E1,1.3790991E2,2.3033197E1,2.4073431E0,1.028572E1,1.3229805E0,1.0098515E0,2.341586E1,1.359831E0,1.756841E1,7.702164E1,3.4188094E0,1.0841839E0,1.7790066E0,1.6524366E0,1.4392806E1,1.5541424E1,1.0951777E0,1.5775146E1,7.472475E0,1.3881413E1,3.138558E0,2.2700533E1,3.4199321E0,1.3248855E0,1.0051632E0,1.7449882E0,1.005368E0,2.236638E0,1.0285797E0,1.5236186E1],"tree_param":{"num_deleted":"0","num_feature":"75","num_nodes":"99","size_leaf_vector":"1"}},{"base_weights":[-6.132885E-3,1.5836302E-2,-4.9375507E-1,3.6785E-3,5.464903E-1,-3.5791212E-1,-8.8983923E-1,2.6082475E-2,-2.812014E-1,8.369236E-1,-1.3739879E-2,-7.566352E-1,-1.5601268E-1,-4.15209E-3,-9.452067E-1,-5.5371393E-3,1.7932272E-1,1.9955237E-1,-5.409434E-1,2.0115812E-1,9.335946E-1,-3.053803E-1,2.43734E-1,9.743778E-2,-8.6214274E-1,1.5373416E-1,-5.3157187E-1,-6.0507577E-2,-2.9470283E-1,-1.4377847E-2,7.685146E-1,1.5420238E-2,4.5379382E-1,-7.98974E-2,5.980464E-1,-9.8534787E-1,-1.2590274E-1,1.7269456E-1,-1.0557784E-1,5.518465E-1,3.230976E-1,6.6033965E-1,-6.7249364E-1,-1.7331641E-2,-2.871681E-1,6.508755E-1,-3.087795E-1,-6.5277016E-1,1.0178606E-1,3.6760002E-2,-1.4990772E-1,3.728441E-1,-6.476652E-2,-1.3686557E0,6.665642E-2,5.993088E-1,-1.3832471E-1,2.2539486E-1,-4.523213E-1,3.6064705E-1,7.510146E-2,-3.963236E-4,-1.015628E0,7.2474265E-1,-5.003414E-1,1.0199708E0,-3.150495E-1,-6.688174E-2,3.5138938E-1,9.4888166E-2,-8.79241E-1,1.0461564E0,-3.471786E-1,2.0835575E-1,-5.78793E-1,8.2587525E-2,-7.753697E-1,3.1283796E-2,-3.650893E-2,-2.3803116E-1,-2.627763E-2,-2.9602072E-1,1.9976412E-1,-7.000329E-2,-5.4501766E-1,1.2030912E-1,-3.2004874E-2,-1.747028E-1,2.0273347E-1,-2.5457639E-1,1.1884089E-1,2.4432647E-3,3.6248052E-1,-2.0783344E-1,7.7525355E-2,-8.245972E-2,2.1681894E-1,-3.1035972E-1,-8.507434E-2,6.5705323E-1,2.2653274E-2,1.5511161E-1,-2.0026977E-1,5.7695895E-2,3.6392355E-1,-1.986846E-1,5.758778E-2,-2.9111717E-2,-3.3200854E-1,4.5193893E-1,-5.9992157E-2,-2.0370333E-1,8.0294676E-2,-2.7630402E-2,-2.664445E-1,2.0505662E-1,-1.6637482E-1,5.955933E-3,-2.5510654E-1],"categories":[],"categories_nodes":[],"categories_segments":[],"categories_sizes":[],"default_left":[0,0,0,0,0,0,0,0,0,0,0,0,0,0,0,0,0,0,0,0,0,0,0,0,0,0,0,0,0,0,0,0,0,0,0,0,0,0,0,0,0,0,0,0,0,0,0,0,0,0,0,0,0,0,0,0,0,0,0,0,0,0,0,0,0,0,0,0,0,0,0,0,0,0,0,0,0,0,0,0,0,0,0,0,0,0,0,0,0,0,0,0,0,0,0,0,0,0,0,0,0,0,0,0,0,0,0,0,0,0,0,0,0,0,0,0,0,0,0],"id":9,"left_children":[1,3,5,7,9,11,13,15,17,19,21,23,25,-1,27,29,31,33,35,37,39,41,-1,-1,43,45,47,-1,-1,49,51,53,55,57,59,61,63,-1,-1,65,-1,67,69,-1,-1,71,73,75,-1,77,79,-1,81,83,85,87,89,91,93,-1,95,-1,97,99,101,103,105,-1,-1,-1,107,109,111,-1,113,115,117,-1,-1,-1,-1,-1,-1,-1,-1,-1,-1,-1,-1,-1,-1,-1,-1,-1,-1,-1,-1,-1,-1,-1,-1,-1,-1,-1,-1,-1,-1,-1,-1,-1,-1,-1,-1,-1,-1,-1,-1,-1,-1],"loss_changes":[1.7002535E1,9.797886E0,3.36306E0,9.491482E0,5.546111E0,4.1181693E0,8.018017E-1,6.680607E0,1.3647422E1,1.1900091E0,3.283427E0,2.2686825E0,4.2920113E0,0E0,2.3777962E-1,7.8377314E0,1.0601971E1,4.3644123E0,1.2909573E1,1.0794457E0,4.5585442E-1,4.00266E0,0E0,0E0,1.1801767E0,4.939962E0,1.9717588E0,0E0,0E0,7.849605E0,5.192206E0,1.063544E1,7.676979E0,2.7928512E0,4.9947395E0,1.0110855E0,1.2365997E1,0E0,0E0,3.2794874E0,0E0,1.7366121E0,1.8661532E0,0E0,0E0,4.408916E0,3.4781406E0,1.4072585E0,0E0,8.812904E0,1.2372203E1,0E0,4.457631E0,2.2997303E0,8.408424E0,6.8034706E0,7.2448416E0,2.909781E0,2.057912E0,0E0,2.395847E0,0E0,1.627922E-1,1.118179E1,4.897649E0,5.6093407E-1,7.116229E-1,0E0,0E0,0E0,1.0827546E0,4.657693E0,9.2847073E-1,0E0,1.3474226E0,1.540313E0,7.841034E-1,0E0,0E0,0E0,0E0,0E0,0E0,0E0,0E0,0E0,0E0,0E0,0E0,0E0,0E0,0E0,0E0,0E0,0E0,0E0,0E0,0E0,0E0,0E0,0E0,0E0,0E0,0E0,0E0,0E0,0E0,0E0,0E0,0E0,0E0,0E0,0E0,0E0,0E0,0E0,0E0,0E0,0E0],"parents":[2147483647,0,0,1,1,2,2,3,3,4,4,5,5,6,6,7,7,8,8,9,9,10,10,11,11,12,12,14,14,15,15,16,16,17,17,18,18,19,19,20,20,21,21,24,24,25,25,26,26,29,29,30,30,31,31,32,32,33,33,34,34,35,35,36,36,39,39,41,41,42,42,45,45,46,46,47,47,49,49,50,50,52,52,53,53,54,54,55,55,56,56,57,57,58,58,60,60,62,62,63,63,64,64,65,65,66,66,70,70,71,71,72,72,74,74,75,75,76,76],"right_children":[2,4,6,8,10,12,14,16,18,20,22,24,26,-1,28,30,32,34,36,38,40,42,-1,-1,44,46,48,-1,-1,50,52,54,56,58,60,62,64,-1,-1,66,-1,68,70,-1,-1,72,74,76,-1,78,80,-1,82,84,86,88,90,92,94,-1,96,-1,98,100,102,104,106,-1,-1,-1,108,110,112,-1,114,116,118,-1,-1,-1,-1,-1,-1,-1,-1,-1,-1,-1,-1,-1,-1,-1,-1,-1,-1,-1,-1,-1,-1,-1,-1,-1,-1,-1,-1,-1,-1,-1,-1,-1,-1,-1,-1,-1,-1,-1,-1,-1,-1],"split_conditions":[1.26842985E1,1.1314021E0,-1.1259481E-2,1E0,1.4359684E1,-1.1012887E-2,-4.247006E-2,1.6147612E-2,2.0794415E0,5.996452E0,7.5104303E0,-3.1204442E-2,5.6141717E-3,-4.15209E-3,-9.559875E-3,5.148204E-2,2.7094467E-2,6.1717005E0,5.8777356E0,5.669881E0,1.0462557E0,3.1354942E0,2.43734E-1,9.743778E-2,-2.2908675E-2,-4.536136E-3,7.3524183E-3,-6.0507577E-2,-2.9470283E-1,1.1095503E-2,7.5522375E0,-3.066564E-2,1.1779601E-4,4.2904596E0,6.931472E-1,4.4188404E0,1.401171E1,1.7269456E-1,-1.0557784E-1,8.596437E-1,3.230976E-1,4.5517693E0,3.49959E0,-1.7331641E-2,-2.871681E-1,3.964963E-2,-9.278591E-3,-2.0554613E-2,1.0178606E-1,1.2122677E-2,3.5553482E0,3.728441E-1,2.4194553E-2,3.3430173E-4,3.78225E-3,-5.9286814E-2,1.3795893E-3,4.1271343E0,8.478237E-3,3.6064705E-1,2.10545E-2,-3.963236E-4,8.449128E0,3.6635616E0,1.8692132E-2,2.085562E-2,7.539168E-3,-6.688174E-2,3.5138938E-1,9.4888166E-2,5.809589E-3,1.4376603E1,2.7500644E-2,2.0835575E-1,-2.720492E-3,1.5424931E-2,-3.6017407E-2,3.1283796E-2,-3.650893E-2,-2.3803116E-1,-2.627763E-2,-2.9602072E-1,1.9976412E-1,-7.000329E-2,-5.4501766E-1,1.2030912E-1,-3.2004874E-2,-1.747028E-1,2.0273347E-1,-2.5457639E-1,1.1884089E-1,2.4432647E-3,3.6248052E-1,-2.0783344E-1,7.7525355E-2,-8.245972E-2,2.1681894E-1,-3.1035972E-1,-8.507434E-2,6.5705323E-1,2.2653274E-2,1.5511161E-1,-2.0026977E-1,5.7695895E-2,3.6392355E-1,-1.986846E-1,5.758778E-2,-2.9111717E-2,-3.3200854E-1,4.5193893E-1,-5.9992157E-2,-2.0370333E-1,8.0294676E-2,-2.7630402E-2,-2.664445E-1,2.0505662E-1,-1.6637482E-1,5.955933E-3,-2.5510654E-1],"split_indices":[64,71,59,73,72,50,2,52,66,65,64,6,50,0,29,48,20,65,72,65,70,66,0,0,30,10,63,0,0,49,64,19,46,64,66,65,72,0,0,70,0,69,69,0,0,57,16,10,0,45,66,0,57,45,20,61,49,64,8,0,57,0,65,66,71,31,49,0,0,0,6,64,6,0,1,56,28,0,0,0,0,0,0,0,0,0,0,0,0,0,0,0,0,0,0,0,0,0,0,0,0,0,0,0,0,0,0,0,0,0,0,0,0,0,0,0,0,0,0],"split_type":[0,0,0,0,0,0,0,0,0,0,0,0,0,0,0,0,0,0,0,0,0,0,0,0,0,0,0,0,0,0,0,0,0,0,0,0,0,0,0,0,0,0,0,0,0,0,0,0,0,0,0,0,0,0,0,0,0,0,0,0,0,0,0,0,0,0,0,0,0,0,0,0,0,0,0,0,0,0,0,0,0,0,0,0,0,0,0,0,0,0,0,0,0,0,0,0,0,0,0,0,0,0,0,0,0,0,0,0,0,0,0,0,0,0,0,0,0,0,0],"sum_hessian":[1.5854138E3,1.5179902E3,6.742356E1,1.484975E3,3.3015297E1,5.1622494E1,1.5801072E1,1.3775481E3,1.07426865E2,2.1417955E1,1.1597341E1,1.6429314E1,3.5193176E1,1.013643E0,1.4787429E1,1.1427224E3,2.3482562E2,3.776316E1,6.9663704E1,3.2334878E0,1.8184467E1,9.037511E0,2.5598302E0,1.2756654E0,1.5153649E1,1.9610138E1,1.5583039E1,1.0093812E0,1.3778048E1,1.1307887E3,1.1933698E1,1.476885E2,8.713712E1,2.2667059E1,1.5096104E1,3.2978214E1,3.6685493E1,1.9037032E0,1.3297846E0,6.2893953E0,1.1895072E1,2.2692742E0,6.768236E0,1.7718823E0,1.3381766E1,9.254988E0,1.0355151E1,1.3899115E1,1.6839247E0,8.215369E2,3.0925183E2,7.291785E0,4.641913E0,4.354158E0,1.4333435E2,6.99376E1,1.7199528E1,1.2673127E1,9.993931E0,6.401833E0,8.69427E0,1.015654E0,3.1962559E1,1.092673E1,2.5758762E1,3.9693606E0,2.3200345E0,1.0382191E0,1.2310551E0,1.0788212E0,5.689415E0,6.594879E0,2.6601083E0,1.862485E0,8.492666E0,2.0327787E0,1.1866336E1,5.763096E2,2.4522734E2,2.6266527E1,2.829853E2,1.8973013E0,2.7446115E0,1.662506E0,2.6916518E0,4.8487576E1,9.484676E1,3.8487682E0,6.608883E1,7.132785E0,1.0066743E1,1.1204757E1,1.4683708E0,7.486406E0,2.5075252E0,6.0178885E0,2.6763818E0,3.0755135E1,1.207424E0,2.6259625E0,8.300768E0,3.3409305E0,2.2417833E1,1.1285151E0,2.8408456E0,1.1952182E0,1.1248164E0,1.6030943E0,4.086321E0,4.663369E0,1.9315099E0,1.6598613E0,1.000247E0,3.804685E0,4.6879807E0,1.0086983E0,1.0240803E0,1.0858712E0,1.0780464E1],"tree_param":{"num_deleted":"0","num_feature":"75","num_nodes":"119","size_leaf_vector":"1"}},{"base_weights":[-4.8357984E-3,2.863391E-2,-2.5272235E-1,6.344676E-1,2.0848803E-2,-3.7673452E-1,1.6439652E-1,8.5361487E-1,-2.6425013E-1,1.1161215E-1,-2.920802E-2,-5.0875664E-1,-1.21483214E-1,-6.144097E-1,3.175542E-1,1.26158E0,-2.677138E-1,2.983484E-1,8.536001E-3,-4.5996163E-2,4.5943952E-1,-4.0333432E-1,-9.370367E-1,-2.7295062E-1,-1.889203E-2,-3.144582E-1,3.1905124E-1,7.4097073E-1,-1.0432666E-1,4.230607E-1,-4.2034537E-2,-9.053305E-1,2.6632965E-1,-5.8723307E-1,3.5652614E-1,-4.0413967E-1,6.780308E-2,-1.9468054E-2,-3.121455E-1,1.8840596E-1,2.864621E-1,-3.9843608E-2,-5.589446E-1,-1.01754E0,6.1850738E-2,8.1795566E-2,-8.048627E-1,-1.4705293E-1,2.9158115E-1,9.799125E-1,-5.841853E-1,6.6169447E-1,-4.4250795E-1,-4.0954277E-1,-1.9595433E-2,-1.2179619E0,4.4127995E-1,4.1296896E-1,-3.8505617E-1,-7.81285E-2,-1.0197892E0,6.8210036E-4,4.8214903E-1,-8.348224E-2,1.3398561E-1,-3.2591624E-3,-7.701605E-1,5.043547E-1,-2.6411414E-1,1.7440592E-1,-2.5386602E-1,-8.9246213E-1,-2.971779E-1,-6.610036E-2,-1.0715499E0,6.1364275E-1,-9.259677E-2,-6.892829E-2,-2.6632062E-1,1.2227098E0,1.3302676E-1,-3.0447545E-2,-2.222453E-1,1.0654342E0,-1.875821E-1,-6.2086797E-1,1.353854E-1,-5.310869E-1,8.5650146E-2,3.1431097E-1,-1.9740841E-1,9.018291E-2,2.3553573E-1,2.6076436E-1,-2.7632922E-1,-1.6913337E-1,1.4312927E-1,1.7359605E-1,-3.8829497E-1,-2.4512686E-1,1.462457E-2,-1.3081992E-1,2.2011779E-1,-9.3987346E-2,-1.2991005E-3,-2.960197E-3,1.6672999E-1,-2.001075E-1,6.952363E-2,-2.7714762E-1,3.1170145E-1,2.6805326E-1,1.2624011E-2,1.407569E-1,-1.5948732E-1,-1.0523892E-1,1.89124E-1,-6.609365E-2,-3.2715958E-1,-2.6566947E-2,-2.56614E-1,-3.3413756E-1,-7.284824E-2,3.1987995E-2,3.4637895E-1,1.624212E-1,-9.301263E-2,1.1114766E-2,4.0668717E-1,2.432555E-1,-2.3583917E-1,3.9084914E-1,1.7622776E-2,5.68541E-2,-2.4431281E-1],"categories":[],"categories_nodes":[],"categories_segments":[],"categories_sizes":[],"default_left":[0,0,0,0,0,0,0,0,0,0,0,0,0,0,0,0,0,0,0,0,0,0,0,0,0,0,0,0,0,0,0,0,0,0,0,0,0,0,0,0,0,0,0,0,0,0,0,0,0,0,0,0,0,0,0,0,0,0,0,0,0,0,0,0,0,0,0,0,0,0,0,0,0,0,0,0,0,0,0,0,0,0,0,0,0,0,0,0,0,0,0,0,0,0,0,0,0,0,0,0,0,0,0,0,0,0,0,0,0,0,0,0,0,0,0,0,0,0,0,0,0,0,0,0,0,0,0,0,0,0,0,0,0,0,0],"id":10,"left_children":[1,3,5,7,9,11,13,15,-1,17,19,21,23,25,27,29,31,33,35,37,39,41,43,-1,45,-1,47,49,51,-1,-1,53,-1,55,57,59,61,63,65,67,-1,69,71,73,-1,75,77,-1,-1,79,81,83,85,-1,-1,87,89,91,93,95,97,99,101,103,105,107,109,111,113,115,-1,117,119,-1,121,123,125,-1,-1,127,129,-1,-1,131,-1,133,-1,-1,-1,-1,-1,-1,-1,-1,-1,-1,-1,-1,-1,-1,-1,-1,-1,-1,-1,-1,-1,-1,-1,-1,-1,-1,-1,-1,-1,-1,-1,-1,-1,-1,-1,-1,-1,-1,-1,-1,-1,-1,-1,-1,-1,-1,-1,-1,-1],"loss_changes":[1.2919172E1,6.457979E0,9.643679E0,6.5211473E0,6.1625004E0,4.760063E0,5.341648E0,7.5135612E0,0E0,9.276974E0,7.195625E0,3.8659592E0,4.0341797E0,3.3435555E0,6.635797E0,2.630104E0,4.4944706E0,9.042004E0,7.650117E0,5.970066E0,3.7329793E0,4.3434677E0,1.8489742E0,0E0,3.6543617E0,0E0,2.1271446E0,6.413641E0,5.284143E0,0E0,0E0,1.348923E0,0E0,7.638252E0,6.91856E0,7.804727E0,7.602771E0,7.5826564E0,1.0841952E1,3.0043137E0,0E0,4.3309445E0,4.4465427E0,4.875965E-1,0E0,3.8692067E0,4.584956E-2,0E0,0E0,3.1279106E0,1.8525064E-1,3.940591E0,2.5065691E0,0E0,0E0,6.3606167E0,3.9526138E0,6.0592403E0,8.828021E0,7.486229E0,6.680479E0,9.327033E0,9.123556E0,9.903059E0,1.3794961E1,7.452264E0,9.541727E0,2.1515372E0,1.9977853E0,5.0015283E0,0E0,2.852829E0,3.620076E0,0E0,2.7153397E-1,2.6966615E0,4.554983E0,0E0,0E0,1.8905411E0,3.5580525E0,0E0,0E0,1.1582422E0,0E0,2.0460606E0,0E0,0E0,0E0,0E0,0E0,0E0,0E0,0E0,0E0,0E0,0E0,0E0,0E0,0E0,0E0,0E0,0E0,0E0,0E0,0E0,0E0,0E0,0E0,0E0,0E0,0E0,0E0,0E0,0E0,0E0,0E0,0E0,0E0,0E0,0E0,0E0,0E0,0E0,0E0,0E0,0E0,0E0,0E0,0E0,0E0,0E0,0E0,0E0,0E0],"parents":[2147483647,0,0,1,1,2,2,3,3,4,4,5,5,6,6,7,7,9,9,10,10,11,11,12,12,13,13,14,14,15,15,16,16,17,17,18,18,19,19,20,20,21,21,22,22,24,24,26,26,27,27,28,28,31,31,33,33,34,34,35,35,36,36,37,37,38,38,39,39,41,41,42,42,43,43,45,45,46,46,49,49,50,50,51,51,52,52,55,55,56,56,57,57,58,58,59,59,60,60,61,61,62,62,63,63,64,64,65,65,66,66,67,67,68,68,69,69,71,71,72,72,74,74,75,75,76,76,79,79,80,80,83,83,85,85],"right_children":[2,4,6,8,10,12,14,16,-1,18,20,22,24,26,28,30,32,34,36,38,40,42,44,-1,46,-1,48,50,52,-1,-1,54,-1,56,58,60,62,64,66,68,-1,70,72,74,-1,76,78,-1,-1,80,82,84,86,-1,-1,88,90,92,94,96,98,100,102,104,106,108,110,112,114,116,-1,118,120,-1,122,124,126,-1,-1,128,130,-1,-1,132,-1,134,-1,-1,-1,-1,-1,-1,-1,-1,-1,-1,-1,-1,-1,-1,-1,-1,-1,-1,-1,-1,-1,-1,-1,-1,-1,-1,-1,-1,-1,-1,-1,-1,-1,-1,-1,-1,-1,-1,-1,-1,-1,-1,-1,-1,-1,-1,-1,-1,-1],"split_conditions":[1.0815409E1,-6.2227294E-2,2.7725887E0,4.673261E-2,6.366327E-3,1.6187589E-3,-2.0655904E-2,-4.33825E-3,-2.6425013E-1,-2.7727833E-2,1.1314021E0,2.2796305E-2,-5.0083373E-2,1.6397193E-2,1.7378008E-2,-1.43224485E-2,-8.4266225E-3,-3.4260344E-2,-1.9987414E-2,5.619431E-3,7.5104303E0,-1.5642203E-2,5.4616906E-2,-2.7295062E-1,2.6248835E-2,-3.144582E-1,2.9178443E-3,1.9280843E-2,3.5193553E-3,4.230607E-1,-4.2034537E-2,-2.1184398E-2,2.6632965E-1,7.7080773E-3,2.1211423E-2,1.8110495E-2,1.5686905E-2,2.2859685E-2,8.621985E-3,1.43832035E1,2.864621E-1,1.3494729E1,-8.811789E-3,-2.450645E-2,6.1850738E-2,-1.4156122E-2,-1.158871E-2,-1.4705293E-1,2.9158115E-1,-9.6783554E-4,-6.8095936E-3,5.529004E-3,1.17312195E-2,-4.0954277E-1,-1.9595433E-2,2.6557721E-2,3.530199E-3,4.733243E-3,-1.023223E-2,5.0206427E-3,-2.8535077E-2,2.3978953E0,-1.7245622E-2,-2.7139759E-2,-6.1358786E-3,-1.2920262E-2,4.922937E-2,4.090086E0,3.1354942E0,1.0706344E-2,-2.5386602E-1,-2.592919E-2,2.085654E-2,-6.610036E-2,1.728558E-2,1.0330099E-2,-3.1118508E-2,-6.892829E-2,-2.6632062E-1,-6.786581E-3,2.6096012E-2,-3.0447545E-2,-2.222453E-1,1.0076046E-2,-1.875821E-1,-2.4180572E-2,1.353854E-1,-5.310869E-1,8.5650146E-2,3.1431097E-1,-1.9740841E-1,9.018291E-2,2.3553573E-1,2.6076436E-1,-2.7632922E-1,-1.6913337E-1,1.4312927E-1,1.7359605E-1,-3.8829497E-1,-2.4512686E-1,1.462457E-2,-1.3081992E-1,2.2011779E-1,-9.3987346E-2,-1.2991005E-3,-2.960197E-3,1.6672999E-1,-2.001075E-1,6.952363E-2,-2.7714762E-1,3.1170145E-1,2.6805326E-1,1.2624011E-2,1.407569E-1,-1.5948732E-1,-1.0523892E-1,1.89124E-1,-6.609365E-2,-3.2715958E-1,-2.6566947E-2,-2.56614E-1,-3.3413756E-1,-7.284824E-2,3.1987995E-2,3.4637895E-1,1.624212E-1,-9.301263E-2,1.1114766E-2,4.0668717E-1,2.432555E-1,-2.3583917E-1,3.9084914E-1,1.7622776E-2,5.68541E-2,-2.4431281E-1],"split_indices":[64,37,67,23,41,23,30,62,0,63,71,18,34,12,33,59,25,30,14,46,64,37,4,0,5,0,50,39,14,0,0,28,0,1,2,31,53,41,19,72,0,64,36,55,0,47,50,0,0,53,30,30,28,0,0,11,53,46,16,7,6,66,8,59,27,15,19,69,66,32,0,27,31,0,53,48,51,0,0,33,57,0,0,26,0,1,0,0,0,0,0,0,0,0,0,0,0,0,0,0,0,0,0,0,0,0,0,0,0,0,0,0,0,0,0,0,0,0,0,0,0,0,0,0,0,0,0,0,0,0,0,0,0,0,0],"split_type":[0,0,0,0,0,0,0,0,0,0,0,0,0,0,0,0,0,0,0,0,0,0,0,0,0,0,0,0,0,0,0,0,0,0,0,0,0,0,0,0,0,0,0,0,0,0,0,0,0,0,0,0,0,